{"type":"LSTM","options":{"inputSize":13,"inputRange":13,"hiddenLayers":[20,20],"outputSize":13,"decayRate":0.999,"smoothEps":1e-8,"regc":0.000001,"clipval":5,"maxPredictionLength":100,"dataFormatter":{"values":["0","1","2","3","4","5","8","9","6","7","10","11","12","13","14","15","18","19","16","17","20","21","22","23","24","25","28","29","26","27","30","31","32","33","34","35","38","39","36","37","40","41","42","43","44","45","48","49","46","47","50","51","52","53","54","55","58","59","56","57","61","62","63","64","65","66","67","68","79","70","71"],"indexTable":{"0":0,"1":1,"2":2,"3":3,"4":4,"5":5,"6":8,"7":9,"8":6,"9":7,"stop-input":10,"start-output":11,"unrecognized":12},"characterTable":{"0":"0","1":"1","2":"2","3":"3","4":"4","5":"5","6":"8","7":"9","8":"6","9":"7","10":null,"11":null,"12":null},"characters":["0","1","2","3","4","5","8","9","6","7","stop-input","start-output","unrecognized"],"specialIndexes":[10,11,12]}},"input":{"rows":14,"columns":13,"weights":{"0":-1.0054340362548828,"1":1.21146821975708,"2":-0.7276942729949951,"3":0.24091680347919464,"4":0.7399249076843262,"5":0.5872582793235779,"6":-0.25987252593040466,"7":0.9068253040313721,"8":-0.3927004933357239,"9":0.9226076006889343,"10":1.406480312347412,"11":-0.4167443513870239,"12":-0.5889065265655518,"13":-1.1529465913772583,"14":-4.082231521606445,"15":8.449840545654297,"16":3.945681095123291,"17":0.2106843888759613,"18":-9.700307846069336,"19":-1.4758950471878052,"20":-5.4557929039001465,"21":-1.6198179721832275,"22":-8.106729507446289,"23":0.655442476272583,"24":2.915717601776123,"25":5.652466297149658,"26":1.8075499534606934,"27":-1.1777489185333252,"28":-0.8799751400947571,"29":-2.5443456172943115,"30":-3.377682685852051,"31":-0.7159181237220764,"32":-0.16992993652820587,"33":-5.060012340545654,"34":2.497887372970581,"35":1.665426254272461,"36":-2.57612681388855,"37":-0.40916508436203003,"38":4.658587455749512,"39":5.1306047439575195,"40":-3.5286672115325928,"41":1.9189798831939697,"42":-2.264033079147339,"43":2.645998239517212,"44":-1.4263159036636353,"45":5.319887161254883,"46":4.630975723266602,"47":0.4731203615665436,"48":-5.145267963409424,"49":1.2065435647964478,"50":1.0247509479522705,"51":1.861053228378296,"52":-2.4244191646575928,"53":1.284175992012024,"54":1.0724564790725708,"55":-0.5611295700073242,"56":-6.819247722625732,"57":-3.431993246078491,"58":8.866866111755371,"59":1.3376725912094116,"60":-2.6907451152801514,"61":-3.8709423542022705,"62":3.844050645828247,"63":-0.5192453861236572,"64":-1.67899489402771,"65":-1.048773169517517,"66":3.868637800216675,"67":3.042886734008789,"68":5.2766194343566895,"69":6.582625865936279,"70":3.9095842838287354,"71":0.2548806071281433,"72":0.12189343571662903,"73":0.3602917194366455,"74":-5.233367443084717,"75":5.273425102233887,"76":0.7242138385772705,"77":-4.891169548034668,"78":-1.749800682067871,"79":-3.344119071960449,"80":0.7414329648017883,"81":9.430621147155762,"82":3.3701038360595703,"83":2.235234498977661,"84":-1.5035067796707153,"85":0.024575866758823395,"86":2.432050943374634,"87":-0.08445410430431366,"88":1.164136528968811,"89":3.1547417640686035,"90":-2.032850503921509,"91":12.277944564819336,"92":-13.159701347351074,"93":-0.978895366191864,"94":1.1736576557159424,"95":5.8772664070129395,"96":3.094545841217041,"97":-1.28172767162323,"98":0.7208693027496338,"99":6.731276988983154,"100":2.3407013416290283,"101":0.7674972414970398,"102":3.027393102645874,"103":3.7220146656036377,"104":9.88194751739502,"105":-10.440195083618164,"106":-1.5715243816375732,"107":4.574001312255859,"108":4.150130748748779,"109":-3.6401400566101074,"110":1.1619893312454224,"111":3.8853635787963867,"112":6.441747188568115,"113":5.438727855682373,"114":-2.586252450942993,"115":-2.953993320465088,"116":-7.226031303405762,"117":-0.16309599578380585,"118":-0.3262401223182678,"119":-0.4642085134983063,"120":-6.161445140838623,"121":-1.624100923538208,"122":-7.775003910064697,"123":2.808194875717163,"124":0.017401257529854774,"125":-1.4651620388031006,"126":5.4946746826171875,"127":-5.406116962432861,"128":-5.277631759643555,"129":-5.928893566131592,"130":6.511895656585693,"131":-5.937305450439453,"132":-4.603813648223877,"133":-2.5341882705688477,"134":1.6430331468582153,"135":5.1682820320129395,"136":5.2014312744140625,"137":1.0683947801589966,"138":0.5565053820610046,"139":8.383262634277344,"140":-3.8584532737731934,"141":-1.8958525657653809,"142":-1.3774888515472412,"143":0.028471529483795166,"144":0.0364685095846653,"145":-0.24597804248332977,"146":-0.5432286858558655,"147":0.20006699860095978,"148":0.22367055714130402,"149":-0.9273071885108948,"150":0.15504148602485657,"151":0.291212260723114,"152":-0.107033371925354,"153":-0.38404446840286255,"154":-0.2517447769641876,"155":0.31973621249198914,"156":0.8636618256568909,"157":-0.48533591628074646,"158":0.316550076007843,"159":1.94691002368927,"160":1.1816383600234985,"161":0.43008577823638916,"162":-0.4696975350379944,"163":0.4464297592639923,"164":0.9779602289199829,"165":-1.520359754562378,"166":0.0076310900039970875,"167":1.601269006729126,"168":-0.44302913546562195,"169":-0.07349658757448196,"170":0.06863812357187271,"171":0.07404898852109909,"172":0.037018321454524994,"173":-0.05769051983952522,"174":-0.05838111415505409,"175":0.05220666900277138,"176":-0.01765429601073265,"177":0.017181606963276863,"178":-0.04499337077140808,"179":0.05871405079960823,"180":0.03624342009425163,"181":0.011715197004377842}},"hiddenLayers":[{"inputMatrix":{"rows":20,"columns":13,"weights":{"0":1.8358243703842163,"1":-2.746181011199951,"2":0.6221493482589722,"3":1.85951566696167,"4":1.60914146900177,"5":3.5431835651397705,"6":-1.552162528038025,"7":-1.6533013582229614,"8":1.1481891870498657,"9":-1.615371584892273,"10":-1.142851710319519,"11":1.5595237016677856,"12":2.0214552879333496,"13":1.0095281600952148,"14":-1.3058394193649292,"15":-0.581403374671936,"16":-1.1994107961654663,"17":-0.7448287606239319,"18":-0.8375276327133179,"19":-1.5452046394348145,"20":-0.9479560256004333,"21":0.7411321997642517,"22":0.7033581137657166,"23":-1.4105652570724487,"24":-1.1897317171096802,"25":0.038504742085933685,"26":-1.2110451459884644,"27":0.3899954557418823,"28":-0.21184952557086945,"29":-1.5579028129577637,"30":-2.075072765350342,"31":-0.43756797909736633,"32":-3.130646228790283,"33":-3.897233486175537,"34":-0.4731172025203705,"35":1.2842100858688354,"36":-3.8095550537109375,"37":-1.1371105909347534,"38":2.165067195892334,"39":3.558403968811035,"40":-2.7241978645324707,"41":1.5742822885513306,"42":-0.46957266330718994,"43":-0.10572634637355804,"44":-0.8466640710830688,"45":0.31391268968582153,"46":-2.1868929862976074,"47":-0.06292640417814255,"48":2.3816890716552734,"49":-0.31727123260498047,"50":1.0303843021392822,"51":1.2613142728805542,"52":-1.9051299095153809,"53":2.5467047691345215,"54":-2.4667608737945557,"55":-0.9556815028190613,"56":-0.6558969020843506,"57":0.633696436882019,"58":0.31831640005111694,"59":1.2536678314208984,"60":-0.8451196551322937,"61":1.1913691759109497,"62":-0.6581581234931946,"63":-1.951331615447998,"64":0.04298710823059082,"65":-0.13982626795768738,"66":0.3374887704849243,"67":-0.6374256014823914,"68":-0.4875200390815735,"69":-2.070148468017578,"70":0.5089980959892273,"71":-1.6422004699707031,"72":-2.8926870822906494,"73":-1.1807494163513184,"74":1.1974565982818604,"75":-3.667267322540283,"76":-1.0371298789978027,"77":-1.3851351737976074,"78":-0.0315113365650177,"79":-0.7655078768730164,"80":0.34230783581733704,"81":0.6862906217575073,"82":-2.765465497970581,"83":-1.5694798231124878,"84":2.3274106979370117,"85":-2.795731544494629,"86":-0.9534400701522827,"87":0.9088883399963379,"88":0.9635492563247681,"89":0.5573179125785828,"90":-1.2976692914962769,"91":1.192139744758606,"92":-1.0200223922729492,"93":-0.6562238931655884,"94":-1.1649450063705444,"95":-0.20065897703170776,"96":-0.6675812005996704,"97":0.23968271911144257,"98":0.6435020565986633,"99":2.7991809844970703,"100":1.0422194004058838,"101":-0.37548545002937317,"102":-0.5263404250144958,"103":0.8814846873283386,"104":-2.518981695175171,"105":3.033693313598633,"106":-0.7485833764076233,"107":0.21700696647167206,"108":-1.1474969387054443,"109":1.8032572269439697,"110":0.3975970447063446,"111":1.402833104133606,"112":-0.5433545708656311,"113":-1.1139541864395142,"114":0.013919525779783726,"115":-0.8086354732513428,"116":-0.1622486412525177,"117":1.6964267492294312,"118":-0.8936784267425537,"119":-0.6171184778213501,"120":-1.5664403438568115,"121":-2.4149789810180664,"122":0.5321249961853027,"123":-1.924800992012024,"124":-3.015320062637329,"125":0.3510324954986572,"126":2.291429281234741,"127":-1.2829554080963135,"128":-0.2932836413383484,"129":-0.3688812553882599,"130":-2.762845993041992,"131":2.482673168182373,"132":0.6072589755058289,"133":2.7158217430114746,"134":-1.2769906520843506,"135":-0.4921225905418396,"136":-2.176095962524414,"137":-0.23237384855747223,"138":-0.6466431617736816,"139":-1.371018409729004,"140":0.6242702007293701,"141":0.7997674345970154,"142":-2.105926513671875,"143":-2.605522394180298,"144":2.7373781204223633,"145":-2.560546636581421,"146":-1.5464214086532593,"147":-1.3523198366165161,"148":-2.10323429107666,"149":-0.19481155276298523,"150":-0.42675086855888367,"151":-0.5597211718559265,"152":0.057666439563035965,"153":0.21347132325172424,"154":-1.6816130876541138,"155":0.9329644441604614,"156":0.4766765534877777,"157":0.3915401101112366,"158":-2.924482583999634,"159":-2.723259925842285,"160":-1.1372711658477783,"161":-1.5754749774932861,"162":-0.8798491358757019,"163":-0.39751139283180237,"164":0.5715419054031372,"165":3.1874136924743652,"166":-1.30182683467865,"167":-0.28847819566726685,"168":-0.7479444146156311,"169":-0.4687366187572479,"170":0.14762060344219208,"171":0.9111508727073669,"172":0.5352912545204163,"173":-1.094846487045288,"174":-2.27327561378479,"175":-0.19212356209754944,"176":-1.4883790016174316,"177":-1.2786579132080078,"178":-0.6323649287223816,"179":-0.22388792037963867,"180":-0.8601003885269165,"181":0.5163351893424988,"182":-0.6946686506271362,"183":1.587477445602417,"184":-0.8643360137939453,"185":-2.5171778202056885,"186":-0.279640793800354,"187":1.0137975215911865,"188":-1.0607621669769287,"189":-0.6922549605369568,"190":-0.369948148727417,"191":1.8830114603042603,"192":-1.6777961254119873,"193":-2.6532444953918457,"194":0.10472020506858826,"195":-0.8336974382400513,"196":0.9539851546287537,"197":0.3392307162284851,"198":-0.09876865893602371,"199":-3.1335573196411133,"200":0.6008017659187317,"201":-2.511147975921631,"202":-4.273439407348633,"203":-0.8550906181335449,"204":-1.1696022748947144,"205":-3.160130739212036,"206":0.2919694483280182,"207":2.278909683227539,"208":0.47532162070274353,"209":-0.2435787171125412,"210":0.8135049343109131,"211":0.17546924948692322,"212":-1.2566471099853516,"213":-1.9862719774246216,"214":-0.21208854019641876,"215":-2.546217441558838,"216":-1.0603879690170288,"217":-0.002928702626377344,"218":0.6681767106056213,"219":-0.608531653881073,"220":0.3468663692474365,"221":0.5142499804496765,"222":-1.198656678199768,"223":2.0788393020629883,"224":3.7484865188598633,"225":1.649859070777893,"226":-0.08870963007211685,"227":-1.007625699043274,"228":0.8822479248046875,"229":0.7573899030685425,"230":-3.440073013305664,"231":-0.6907016634941101,"232":1.7351430654525757,"233":0.18798652291297913,"234":-2.1420891284942627,"235":0.7559501528739929,"236":0.6422052383422852,"237":2.2552645206451416,"238":0.33501771092414856,"239":1.3855665922164917,"240":-3.676527738571167,"241":-0.9827021360397339,"242":-0.4958709478378296,"243":-1.620572805404663,"244":0.1649220883846283,"245":0.8185967206954956,"246":-1.1909195184707642,"247":0.44477108120918274,"248":-0.07316581159830093,"249":-2.2771618366241455,"250":-2.0531699657440186,"251":-1.7997729778289795,"252":1.0055303573608398,"253":-0.2971777021884918,"254":-1.2475910186767578,"255":2.3692538738250732,"256":-0.22207011282444,"257":-3.30295729637146,"258":-0.40497851371765137,"259":1.4919712543487549}},"inputHidden":{"rows":20,"columns":20,"weights":{"0":-0.5783519148826599,"1":0.15840208530426025,"2":-0.6301200985908508,"3":0.2047855705022812,"4":-0.9284542798995972,"5":0.9686165452003479,"6":2.8806347846984863,"7":0.3370160460472107,"8":-1.5960878133773804,"9":-1.794370174407959,"10":0.783081591129303,"11":0.15634854137897491,"12":0.4566631019115448,"13":-3.969172716140747,"14":0.41491225361824036,"15":-1.386804461479187,"16":0.9747462868690491,"17":0.9296355843544006,"18":-0.8193803429603577,"19":1.2537164688110352,"20":0.17278730869293213,"21":2.9470713138580322,"22":2.5130794048309326,"23":2.2114269733428955,"24":-1.0388662815093994,"25":2.868717908859253,"26":0.5616238117218018,"27":0.9382269978523254,"28":0.2974008023738861,"29":2.0501186847686768,"30":-3.342467784881592,"31":0.6139966249465942,"32":-1.9174468517303467,"33":-0.18663349747657776,"34":-0.8981130123138428,"35":-0.5353886485099792,"36":0.5262686014175415,"37":-2.0318219661712646,"38":-0.23001033067703247,"39":-1.5463550090789795,"40":-0.44030115008354187,"41":1.6577789783477783,"42":0.7492262125015259,"43":3.076418399810791,"44":-1.0322656631469727,"45":-0.28517842292785645,"46":4.49004602432251,"47":-0.06256715208292007,"48":-0.6511465907096863,"49":1.1254061460494995,"50":-2.303770065307617,"51":0.28924793004989624,"52":-1.4178828001022339,"53":1.9659696817398071,"54":-3.6011300086975098,"55":0.4922913610935211,"56":0.7561689615249634,"57":-0.12974555790424347,"58":-0.5886135101318359,"59":-0.5188091397285461,"60":-2.310966730117798,"61":1.2768298387527466,"62":2.2058756351470947,"63":0.11540521681308746,"64":1.7888096570968628,"65":0.5633259415626526,"66":-1.6959322690963745,"67":-0.02847425825893879,"68":2.1413443088531494,"69":-0.2737874388694763,"70":-1.7912458181381226,"71":-0.7916002869606018,"72":-0.8707869648933411,"73":2.9073383808135986,"74":-2.566828727722168,"75":0.46812161803245544,"76":0.15027129650115967,"77":0.658254861831665,"78":-1.292551040649414,"79":-1.1921701431274414,"80":0.21677759289741516,"81":0.9990370273590088,"82":-3.9229562282562256,"83":1.9841035604476929,"84":-2.684779644012451,"85":-1.0811926126480103,"86":-2.2589378356933594,"87":0.19970855116844177,"88":0.9554422497749329,"89":2.6472554206848145,"90":1.4917744398117065,"91":1.4964501857757568,"92":1.2462961673736572,"93":1.5226300954818726,"94":-0.32762840390205383,"95":2.0636682510375977,"96":-3.8909778594970703,"97":2.8032946586608887,"98":-1.0783777236938477,"99":0.30538371205329895,"100":0.7927072048187256,"101":0.2098935842514038,"102":2.929468870162964,"103":-0.1436423510313034,"104":-1.5173736810684204,"105":-2.5647974014282227,"106":2.5729823112487793,"107":1.3846091032028198,"108":-2.9385879039764404,"109":-0.22970086336135864,"110":-2.25054931640625,"111":-1.9777415990829468,"112":1.7172601222991943,"113":3.1642777919769287,"114":0.6836157441139221,"115":-0.24912770092487335,"116":0.8325629234313965,"117":0.856403648853302,"118":-1.238208532333374,"119":0.6171302199363708,"120":-1.821959137916565,"121":-1.6005101203918457,"122":3.111156702041626,"123":-1.2135926485061646,"124":0.9226430654525757,"125":2.1105597019195557,"126":0.08787132054567337,"127":-1.9693621397018433,"128":-2.019312620162964,"129":5.085894584655762,"130":-0.7765660881996155,"131":-1.0465956926345825,"132":1.0979907512664795,"133":-0.3849320709705353,"134":-1.657248616218567,"135":-0.2128244936466217,"136":-1.0808638334274292,"137":0.5196431279182434,"138":-0.25717437267303467,"139":2.27886962890625,"140":-0.6334793567657471,"141":1.5576484203338623,"142":-1.8801213502883911,"143":0.7801980972290039,"144":2.05047607421875,"145":-1.9847830533981323,"146":-0.7371166944503784,"147":-2.929713249206543,"148":2.1161603927612305,"149":4.685643196105957,"150":0.6932111978530884,"151":0.5381256937980652,"152":2.159024715423584,"153":2.3146491050720215,"154":-2.9892446994781494,"155":1.7180534601211548,"156":1.3070001602172852,"157":-1.1109025478363037,"158":2.1868486404418945,"159":-0.889197051525116,"160":1.2489829063415527,"161":-1.440441608428955,"162":1.2429887056350708,"163":-1.7494345903396606,"164":-2.810976028442383,"165":2.197594165802002,"166":1.17421293258667,"167":-0.6899330019950867,"168":-6.879220485687256,"169":2.119615077972412,"170":2.7253077030181885,"171":-1.1571136713027954,"172":1.7195425033569336,"173":1.4620468616485596,"174":-0.28240424394607544,"175":-1.7689908742904663,"176":-1.6159175634384155,"177":0.46208539605140686,"178":0.20876581966876984,"179":-1.890529990196228,"180":0.9144009947776794,"181":-1.0626636743545532,"182":0.2713714838027954,"183":-0.864164412021637,"184":1.062446117401123,"185":2.446143627166748,"186":0.1807728409767151,"187":-2.4197781085968018,"188":-2.0640957355499268,"189":-0.2041737586259842,"190":2.029829502105713,"191":-2.5421483516693115,"192":2.9934582710266113,"193":-3.4414501190185547,"194":0.7607635855674744,"195":-1.6886669397354126,"196":1.5422077178955078,"197":4.308967590332031,"198":-1.3040162324905396,"199":4.412472724914551,"200":-1.6309691667556763,"201":-1.285064697265625,"202":1.4457415342330933,"203":-0.22168570756912231,"204":-2.293719530105591,"205":1.7496414184570312,"206":0.023019365966320038,"207":2.511732339859009,"208":1.4522510766983032,"209":-2.01253080368042,"210":-0.4912945628166199,"211":0.2886906564235687,"212":-1.0968375205993652,"213":-0.36270496249198914,"214":0.8776302933692932,"215":-0.4617101848125458,"216":-2.22633695602417,"217":3.7122974395751953,"218":-1.8460512161254883,"219":-1.4510051012039185,"220":-0.18838679790496826,"221":-0.18920423090457916,"222":-0.9593730568885803,"223":-1.5857535600662231,"224":-1.9866223335266113,"225":2.2447566986083984,"226":-1.2214363813400269,"227":0.45163875818252563,"228":-2.600836753845215,"229":5.689340591430664,"230":-2.6027865409851074,"231":0.8409099578857422,"232":-1.0061155557632446,"233":-1.4309453964233398,"234":-0.20341479778289795,"235":-1.1518243551254272,"236":-4.603895664215088,"237":0.11485891789197922,"238":-0.42551547288894653,"239":1.680568814277649,"240":-3.8345470428466797,"241":-3.34016489982605,"242":0.20846498012542725,"243":-2.1581859588623047,"244":-1.1209261417388916,"245":-0.13459278643131256,"246":1.327017903327942,"247":0.4985077679157257,"248":1.2159408330917358,"249":2.3406317234039307,"250":1.2798818349838257,"251":-2.905351400375366,"252":0.6390112638473511,"253":-1.7376741170883179,"254":2.4343607425689697,"255":-0.6534920334815979,"256":-1.7867392301559448,"257":4.009805202484131,"258":-1.4378949403762817,"259":-0.19878609478473663,"260":1.0011948347091675,"261":-1.4398595094680786,"262":1.6806608438491821,"263":-1.672643780708313,"264":3.5074398517608643,"265":-0.5669040679931641,"266":-3.6686341762542725,"267":-0.6899946928024292,"268":-0.7933812737464905,"269":0.9724107980728149,"270":1.1344072818756104,"271":0.14887423813343048,"272":-4.852299213409424,"273":-0.8245527744293213,"274":1.2059624195098877,"275":6.30086088180542,"276":1.807660460472107,"277":0.8975533246994019,"278":0.3182571232318878,"279":2.7286105155944824,"280":0.9438533782958984,"281":-2.7756528854370117,"282":0.0005469016032293439,"283":-2.6920053958892822,"284":-0.24980606138706207,"285":2.7958104610443115,"286":-1.2252209186553955,"287":-0.27507278323173523,"288":-2.817669153213501,"289":3.842486619949341,"290":0.9015633463859558,"291":0.3918362557888031,"292":1.455798864364624,"293":-0.7424054145812988,"294":1.7440996170043945,"295":-2.331733226776123,"296":2.9203903675079346,"297":0.903550386428833,"298":-2.530181407928467,"299":1.520673155784607,"300":0.2879423201084137,"301":1.8524328470230103,"302":1.3199912309646606,"303":0.2584358751773834,"304":1.4675627946853638,"305":1.0048264265060425,"306":2.056415557861328,"307":-0.06469027698040009,"308":-1.8876454830169678,"309":-0.7813378572463989,"310":-2.1402747631073,"311":-2.2423453330993652,"312":-0.014954740181565285,"313":2.5540614128112793,"314":-1.324046015739441,"315":0.6932971477508545,"316":1.5032806396484375,"317":0.34094950556755066,"318":-2.3570306301116943,"319":0.4515955448150635,"320":2.6213221549987793,"321":-3.1212143898010254,"322":-5.551413059234619,"323":-4.06834602355957,"324":2.2058401107788086,"325":-5.929156303405762,"326":0.8433327674865723,"327":0.7468028664588928,"328":-3.59202241897583,"329":0.8542798161506653,"330":-1.327642798423767,"331":0.3117913007736206,"332":4.390669345855713,"333":1.9186477661132812,"334":-0.5663740634918213,"335":2.3278777599334717,"336":-0.9353731870651245,"337":-0.9049168229103088,"338":0.8041519522666931,"339":1.8024113178253174,"340":-1.4974372386932373,"341":-0.08671720325946808,"342":2.211595058441162,"343":-0.3298764228820801,"344":-0.07912258058786392,"345":-1.4563899040222168,"346":-1.7098050117492676,"347":1.7226349115371704,"348":1.8740153312683105,"349":0.06793568283319473,"350":-1.8389458656311035,"351":-0.636968195438385,"352":0.9814890027046204,"353":-0.6945676803588867,"354":1.32796049118042,"355":-2.305568218231201,"356":1.6855902671813965,"357":0.7753174901008606,"358":-0.0748572051525116,"359":-0.9865063428878784,"360":-2.661134719848633,"361":0.9072065353393555,"362":-0.19976188242435455,"363":0.9853321313858032,"364":-2.218663215637207,"365":0.2868693470954895,"366":1.672470211982727,"367":-0.7128790616989136,"368":-1.8433291912078857,"369":0.081446573138237,"370":0.47363540530204773,"371":0.7670444250106812,"372":-2.947794198989868,"373":0.1421579122543335,"374":-2.5452334880828857,"375":0.30582723021507263,"376":-1.2746142148971558,"377":0.2670685648918152,"378":-1.0884431600570679,"379":-1.2219748497009277,"380":-0.4746473431587219,"381":-1.0667818784713745,"382":2.4900314807891846,"383":-0.3429258167743683,"384":-3.452688455581665,"385":-0.6100305914878845,"386":-1.3477972745895386,"387":1.1110056638717651,"388":-1.0732556581497192,"389":2.5781099796295166,"390":1.1937282085418701,"391":1.316994071006775,"392":-1.3756060600280762,"393":-0.4364398717880249,"394":-2.4352378845214844,"395":1.2252568006515503,"396":-5.55767822265625,"397":3.160879611968994,"398":-2.348775863647461,"399":0.5153842568397522}},"inputBias":{"rows":20,"columns":1,"weights":{"0":-1.7236785888671875,"1":-1.4281632900238037,"2":0.6320496201515198,"3":-1.283045768737793,"4":4.045295715332031,"5":-0.6738501191139221,"6":0.5844861268997192,"7":1.781311273574829,"8":2.2523601055145264,"9":0.04461592435836792,"10":1.1132811307907104,"11":0.7116586565971375,"12":0.8002377152442932,"13":-1.2610938549041748,"14":2.512913942337036,"15":-2.8747403621673584,"16":-2.202193021774292,"17":-0.2545073926448822,"18":3.1077630519866943,"19":-0.796798050403595}},"forgetMatrix":{"rows":20,"columns":13,"weights":{"0":0.2047516107559204,"1":-1.2055312395095825,"2":-0.8188807964324951,"3":-0.31502798199653625,"4":-2.7369303703308105,"5":0.1424175500869751,"6":0.2892627716064453,"7":-1.38606858253479,"8":1.701422095298767,"9":1.5078718662261963,"10":-1.6565237045288086,"11":-1.5736029148101807,"12":2.153784990310669,"13":-0.4618639349937439,"14":0.5498713850975037,"15":0.28985026478767395,"16":1.0332446098327637,"17":-0.4958714544773102,"18":1.257392406463623,"19":-1.0068975687026978,"20":-0.7222855687141418,"21":-1.2179113626480103,"22":-1.0452179908752441,"23":-1.5863069295883179,"24":0.6916506290435791,"25":1.576170563697815,"26":0.7798734307289124,"27":-0.4655350148677826,"28":-0.7029420137405396,"29":0.6401180624961853,"30":1.4517375230789185,"31":2.494014024734497,"32":0.36111322045326233,"33":0.009515414014458656,"34":1.557965636253357,"35":-1.4483036994934082,"36":-0.8930109143257141,"37":2.6958701610565186,"38":0.46370255947113037,"39":1.0857360363006592,"40":-1.2052384614944458,"41":2.2927772998809814,"42":1.3400670289993286,"43":-0.7535439729690552,"44":0.7134882211685181,"45":1.1023653745651245,"46":-1.042771339416504,"47":0.05780746787786484,"48":-0.6723672747612,"49":3.2355194091796875,"50":1.7104331254959106,"51":0.7212384939193726,"52":3.0304481983184814,"53":-0.8471672534942627,"54":2.483177423477173,"55":0.550239086151123,"56":2.093578815460205,"57":1.3126530647277832,"58":-0.8505761027336121,"59":-0.5726829767227173,"60":-0.4488823115825653,"61":-0.8022410273551941,"62":-0.7424898147583008,"63":1.7998888492584229,"64":1.2008429765701294,"65":1.76227605342865,"66":-1.187937617301941,"67":-0.04166480526328087,"68":-0.7890044450759888,"69":1.2889186143875122,"70":-1.4862632751464844,"71":1.461682677268982,"72":0.49615922570228577,"73":-0.9081707000732422,"74":0.39508765935897827,"75":0.3686893582344055,"76":-0.1323031485080719,"77":0.3178215026855469,"78":-0.528222918510437,"79":1.5203754901885986,"80":0.10648546367883682,"81":-1.2690787315368652,"82":-0.8833667039871216,"83":-0.3313014805316925,"84":-1.760969877243042,"85":-0.08637919276952744,"86":-1.4865705966949463,"87":1.6344276666641235,"88":-1.5169211626052856,"89":0.006652635522186756,"90":-2.547870635986328,"91":-1.0364737510681152,"92":3.229142427444458,"93":1.178017020225525,"94":-1.2265586853027344,"95":2.027428388595581,"96":-0.4055478870868683,"97":1.4137587547302246,"98":3.573199510574341,"99":-1.3920845985412598,"100":-1.0424156188964844,"101":1.7023448944091797,"102":-0.7420632243156433,"103":1.1319853067398071,"104":-0.04528732970356941,"105":-1.3954845666885376,"106":1.7927535772323608,"107":0.7364662885665894,"108":-2.0550897121429443,"109":-2.7423832416534424,"110":-0.0737687200307846,"111":-4.533559799194336,"112":-0.4563392996788025,"113":1.6149532794952393,"114":0.5185888409614563,"115":-0.7686516642570496,"116":-2.3576154708862305,"117":-1.394711971282959,"118":0.6417927742004395,"119":-3.9935503005981445,"120":-2.6195802688598633,"121":-2.605923652648926,"122":0.6233357191085815,"123":-1.653852939605713,"124":-0.21212488412857056,"125":-0.4484367370605469,"126":2.0917270183563232,"127":-1.7588329315185547,"128":-2.653618574142456,"129":-1.0644131898880005,"130":-1.3695685863494873,"131":-1.6194899082183838,"132":-0.8280699849128723,"133":0.8356223106384277,"134":-1.4096448421478271,"135":0.1563396155834198,"136":-2.6448657512664795,"137":-2.2124569416046143,"138":1.1523493528366089,"139":-0.15995252132415771,"140":-1.8783782720565796,"141":-0.4791718125343323,"142":2.369246482849121,"143":-3.0314457416534424,"144":1.8304243087768555,"145":-1.317247986793518,"146":0.8068581819534302,"147":0.16775833070278168,"148":1.0790785551071167,"149":-2.243405342102051,"150":-1.8410149812698364,"151":-0.6853165626525879,"152":0.8954790234565735,"153":-0.21998058259487152,"154":0.32666558027267456,"155":-0.22383010387420654,"156":1.271453619003296,"157":-0.8011627197265625,"158":-1.4691747426986694,"159":-0.5557758808135986,"160":-1.971583604812622,"161":-0.08089252561330795,"162":-1.5390663146972656,"163":-2.3990249633789062,"164":-0.05137276649475098,"165":1.715785264968872,"166":-1.874087929725647,"167":-0.47594690322875977,"168":0.028350993990898132,"169":-1.3060500621795654,"170":-0.9645296335220337,"171":0.08590362221002579,"172":-0.25241848826408386,"173":-1.6836193799972534,"174":-0.9390279054641724,"175":0.3962564766407013,"176":-2.6642627716064453,"177":-1.060644268989563,"178":0.29918235540390015,"179":-0.6954110264778137,"180":0.3528522551059723,"181":-0.12853550910949707,"182":-0.5682498812675476,"183":0.43207836151123047,"184":-1.831789493560791,"185":-2.4877066612243652,"186":-2.1826789379119873,"187":0.5582402944564819,"188":-1.848671317100525,"189":-2.364403009414673,"190":0.4870132505893707,"191":1.4687411785125732,"192":-1.7962989807128906,"193":-1.622402310371399,"194":-1.6074358224868774,"195":-0.7569555640220642,"196":1.47016441822052,"197":-0.25039124488830566,"198":-3.614957809448242,"199":-0.16116712987422943,"200":-4.263551235198975,"201":0.32262083888053894,"202":1.2187092304229736,"203":-1.1072754859924316,"204":-0.7177507877349854,"205":-0.7199447154998779,"206":-1.168059229850769,"207":1.0137356519699097,"208":1.0477561950683594,"209":0.5838179588317871,"210":2.21510910987854,"211":0.20713023841381073,"212":0.20629675686359406,"213":-1.0954036712646484,"214":-0.5442836880683899,"215":3.230600595474243,"216":-1.5039610862731934,"217":-1.8693749904632568,"218":0.16204991936683655,"219":-0.6485770344734192,"220":0.6930674314498901,"221":1.2046313285827637,"222":-0.3744553327560425,"223":-0.27028191089630127,"224":0.7496355772018433,"225":2.0745019912719727,"226":1.9595330953598022,"227":2.948137044906616,"228":2.6314890384674072,"229":0.7292327880859375,"230":0.7448278069496155,"231":4.02680778503418,"232":1.3800572156906128,"233":0.7091750502586365,"234":-2.1112966537475586,"235":2.2381372451782227,"236":-2.9916176795959473,"237":-0.8646252155303955,"238":-0.20301109552383423,"239":1.0782196521759033,"240":0.5854769349098206,"241":1.3282276391983032,"242":-1.3677632808685303,"243":1.1503758430480957,"244":-0.06381594389677048,"245":-1.90511953830719,"246":-0.34190353751182556,"247":0.8931364417076111,"248":0.030193230137228966,"249":-2.4301469326019287,"250":-1.3841959238052368,"251":-1.1423864364624023,"252":-0.6539948582649231,"253":0.6145688891410828,"254":-0.19534192979335785,"255":-0.5119180679321289,"256":2.5018866062164307,"257":0.21871083974838257,"258":-2.1525142192840576,"259":1.1230429410934448}},"forgetHidden":{"rows":20,"columns":20,"weights":{"0":-1.5313827991485596,"1":0.5011715292930603,"2":-0.2786968946456909,"3":-0.48579612374305725,"4":-1.1325678825378418,"5":0.04056960344314575,"6":-3.3353824615478516,"7":2.1004929542541504,"8":3.1485540866851807,"9":3.5018341541290283,"10":-1.1265796422958374,"11":0.19106875360012054,"12":2.1023318767547607,"13":3.6415998935699463,"14":0.7571269869804382,"15":0.7856653332710266,"16":-2.737673759460449,"17":3.0623667240142822,"18":-3.270794630050659,"19":0.6076022982597351,"20":0.8304141163825989,"21":1.589105486869812,"22":0.7470672130584717,"23":1.4813663959503174,"24":-1.9159303903579712,"25":1.7100576162338257,"26":0.21626734733581543,"27":-1.0701712369918823,"28":0.17567259073257446,"29":-0.7508050799369812,"30":-0.733707845211029,"31":-0.6913061141967773,"32":-0.43868288397789,"33":-1.2684073448181152,"34":-0.7870389819145203,"35":-0.6578011512756348,"36":0.20262356102466583,"37":-0.32526272535324097,"38":0.611354410648346,"39":-0.8762771487236023,"40":-0.7706510424613953,"41":2.8910932540893555,"42":1.072726845741272,"43":2.6541833877563477,"44":2.9881794452667236,"45":0.7123311758041382,"46":0.04264380410313606,"47":0.9502725601196289,"48":3.5351693630218506,"49":-0.471159964799881,"50":-4.482736110687256,"51":-2.524406671524048,"52":-0.6334179043769836,"53":-0.2037636637687683,"54":0.5296980738639832,"55":-2.4381191730499268,"56":1.4408717155456543,"57":-1.437410831451416,"58":1.9012645483016968,"59":-1.4707045555114746,"60":-1.6427443027496338,"61":-1.5410555601119995,"62":0.6107128262519836,"63":0.4403585195541382,"64":0.21120455861091614,"65":-0.2489459216594696,"66":-0.5855565667152405,"67":-0.7741098999977112,"68":0.6963707804679871,"69":0.47086331248283386,"70":0.5742020606994629,"71":-0.5710763335227966,"72":1.8925496339797974,"73":0.7843396663665771,"74":0.531156599521637,"75":1.203450322151184,"76":2.0035250186920166,"77":1.1598397493362427,"78":-0.6034209728240967,"79":0.13370537757873535,"80":1.9994102716445923,"81":0.977390468120575,"82":0.08497776836156845,"83":0.9337595701217651,"84":2.1561596393585205,"85":0.7184240221977234,"86":0.08895297348499298,"87":0.9495343565940857,"88":1.303532361984253,"89":-1.7938324213027954,"90":-1.6313313245773315,"91":0.830443263053894,"92":-1.9328254461288452,"93":-2.9228157997131348,"94":-0.8074663877487183,"95":0.7949934601783752,"96":1.6821295022964478,"97":-1.7316895723342896,"98":3.5537960529327393,"99":0.29522180557250977,"100":-3.846924066543579,"101":0.044809747487306595,"102":5.146359920501709,"103":2.803009033203125,"104":0.9883188009262085,"105":1.579443097114563,"106":0.9114576578140259,"107":1.7906798124313354,"108":4.148687362670898,"109":-2.133134603500366,"110":-0.8166287541389465,"111":-1.8533483743667603,"112":-5.145725727081299,"113":-2.4342615604400635,"114":-0.34205031394958496,"115":-1.8614623546600342,"116":2.3958740234375,"117":3.3416671752929688,"118":-0.07861723750829697,"119":0.3159969747066498,"120":0.22936706244945526,"121":-0.49188709259033203,"122":1.7131016254425049,"123":0.7164009809494019,"124":1.7032551765441895,"125":3.460597515106201,"126":-0.8513463735580444,"127":-2.678434371948242,"128":0.360153466463089,"129":3.303982973098755,"130":-0.9975813627243042,"131":-1.0925744771957397,"132":-0.04468075931072235,"133":1.2652919292449951,"134":-0.1755175143480301,"135":0.489705353975296,"136":1.8560622930526733,"137":-1.43836510181427,"138":-0.982550859451294,"139":0.18734225630760193,"140":1.686964511871338,"141":0.7917746901512146,"142":-1.6398957967758179,"143":-1.6612199544906616,"144":-1.3143216371536255,"145":-2.7026185989379883,"146":-1.5785807371139526,"147":0.6783653497695923,"148":0.11635597050189972,"149":2.939640998840332,"150":-2.497647523880005,"151":-1.6883277893066406,"152":1.034899353981018,"153":1.8497207164764404,"154":1.008526086807251,"155":-2.065901279449463,"156":-0.6017869114875793,"157":-1.0467230081558228,"158":0.5188983678817749,"159":1.8005427122116089,"160":-4.896050930023193,"161":-1.5398684740066528,"162":0.7725802063941956,"163":-2.2807278633117676,"164":0.8128514885902405,"165":0.7182314395904541,"166":0.9395005702972412,"167":-0.4327812194824219,"168":-1.664886713027954,"169":-1.0546120405197144,"170":1.4145628213882446,"171":0.3516483008861542,"172":-1.37276291847229,"173":-0.04174123704433441,"174":-0.9218353033065796,"175":-0.4976949691772461,"176":1.8150964975357056,"177":0.22311371564865112,"178":0.3970264196395874,"179":1.1058313846588135,"180":-3.194338798522949,"181":-0.31383466720581055,"182":0.8228166699409485,"183":-1.030159831047058,"184":1.1872118711471558,"185":1.6108834743499756,"186":0.6846380233764648,"187":1.0396676063537598,"188":-0.5283898115158081,"189":-1.2435868978500366,"190":1.3459570407867432,"191":1.5534099340438843,"192":1.0875141620635986,"193":-1.660954236984253,"194":0.9634760618209839,"195":-0.1594131886959076,"196":-1.9703888893127441,"197":2.1362948417663574,"198":-1.3540736436843872,"199":1.5486799478530884,"200":-1.401924967765808,"201":1.0037015676498413,"202":0.8028347492218018,"203":0.4405668079853058,"204":0.26559698581695557,"205":0.23951859772205353,"206":0.06614073365926743,"207":0.9231880903244019,"208":-0.7028025388717651,"209":0.4929082691669464,"210":1.7039494514465332,"211":0.556864857673645,"212":2.3192250728607178,"213":0.42063212394714355,"214":-0.3896102011203766,"215":-1.3367972373962402,"216":0.46373531222343445,"217":2.6304872035980225,"218":-0.5594537258148193,"219":1.3497234582901,"220":-2.51835036277771,"221":0.9744268655776978,"222":0.658999502658844,"223":0.4650459587574005,"224":-0.5220588445663452,"225":1.193069577217102,"226":2.4086029529571533,"227":-0.21863333880901337,"228":-0.30425313115119934,"229":1.0850601196289062,"230":3.309114456176758,"231":1.0573924779891968,"232":0.8424991965293884,"233":-0.6894962787628174,"234":-2.243204116821289,"235":-0.21057730913162231,"236":1.5420624017715454,"237":4.3909101486206055,"238":-0.7282508015632629,"239":0.4577830135822296,"240":-2.760686159133911,"241":2.7493762969970703,"242":1.557401418685913,"243":0.4664000868797302,"244":-1.422303557395935,"245":1.4067400693893433,"246":-0.3667343258857727,"247":-1.150980830192566,"248":0.45861944556236267,"249":-0.07078762352466583,"250":-1.8140277862548828,"251":1.9691122770309448,"252":-1.7949961423873901,"253":-0.9563762545585632,"254":-1.803618311882019,"255":-0.21614201366901398,"256":3.7917745113372803,"257":-0.46931153535842896,"258":1.546635627746582,"259":1.4051923751831055,"260":1.1882665157318115,"261":0.07837847620248795,"262":1.5279536247253418,"263":-0.42511510848999023,"264":-1.4184068441390991,"265":-1.460785150527954,"266":-0.5285664200782776,"267":-0.5773346424102783,"268":1.6455531120300293,"269":-0.356193482875824,"270":-2.645505905151367,"271":-1.7124289274215698,"272":5.456053733825684,"273":4.724832057952881,"274":-0.10220178216695786,"275":0.10307237505912781,"276":2.3104188442230225,"277":1.7193455696105957,"278":-0.20214085280895233,"279":0.9845667481422424,"280":-0.9711931943893433,"281":0.1428552120923996,"282":0.6287120580673218,"283":2.2808382511138916,"284":0.12926822900772095,"285":1.6634423732757568,"286":1.6964149475097656,"287":0.2853870093822479,"288":-0.30466142296791077,"289":0.4352593719959259,"290":0.12291862070560455,"291":-1.5348641872406006,"292":-1.4669907093048096,"293":-0.4623602032661438,"294":-1.5858794450759888,"295":-1.568376064300537,"296":0.077783964574337,"297":1.554535984992981,"298":0.2932330071926117,"299":0.10635880380868912,"300":-2.9048402309417725,"301":3.097126007080078,"302":2.7813663482666016,"303":1.766366720199585,"304":-0.4700680077075958,"305":2.7641425132751465,"306":3.146766185760498,"307":-0.11585046350955963,"308":1.0609196424484253,"309":1.3474055528640747,"310":-0.1215117946267128,"311":-0.8674909472465515,"312":-3.1522510051727295,"313":-1.8041200637817383,"314":-0.2762506306171417,"315":-1.785988450050354,"316":2.479682683944702,"317":1.5548930168151855,"318":-0.6172652244567871,"319":-0.39148685336112976,"320":0.4215284287929535,"321":-0.5533097982406616,"322":-3.48614239692688,"323":-3.5130295753479004,"324":0.13146032392978668,"325":-2.492931365966797,"326":2.9608194828033447,"327":-1.0181163549423218,"328":-0.7683783173561096,"329":-1.5669337511062622,"330":1.9669029712677002,"331":0.1937457025051117,"332":-2.1174795627593994,"333":-1.4306024312973022,"334":0.31428879499435425,"335":-0.09449988603591919,"336":0.6310163140296936,"337":-3.679478406906128,"338":2.383615016937256,"339":-0.5567567944526672,"340":0.9375383257865906,"341":-0.8475732803344727,"342":-1.2557926177978516,"343":-0.052997276186943054,"344":-1.4010510444641113,"345":-2.2657132148742676,"346":0.8813440799713135,"347":0.1786973476409912,"348":0.2638181746006012,"349":-1.4804408550262451,"350":-1.7048341035842896,"351":1.62421452999115,"352":-1.7794712781906128,"353":1.0364444255828857,"354":0.28601136803627014,"355":-0.41785767674446106,"356":-0.12151435762643814,"357":-2.1121315956115723,"358":3.075437307357788,"359":2.0298759937286377,"360":0.8828361630439758,"361":0.8693286776542664,"362":-1.3661260604858398,"363":0.43371015787124634,"364":1.4095630645751953,"365":-0.7006899118423462,"366":-2.8965814113616943,"367":-1.3704019784927368,"368":-1.238916277885437,"369":0.47318774461746216,"370":-2.4971816539764404,"371":0.28365111351013184,"372":4.106906890869141,"373":-0.2790493667125702,"374":0.5838471055030823,"375":-1.223890781402588,"376":4.66849422454834,"377":0.7824462056159973,"378":-0.7514524459838867,"379":-0.8228562474250793,"380":0.13008730113506317,"381":0.8549772500991821,"382":2.4226701259613037,"383":-0.38171836733818054,"384":-1.1841171979904175,"385":3.273912191390991,"386":0.2406393587589264,"387":-1.4079394340515137,"388":0.0843510627746582,"389":1.6373285055160522,"390":-0.24552413821220398,"391":1.1219236850738525,"392":-2.242035150527954,"393":1.4376156330108643,"394":0.7636897563934326,"395":-1.5684059858322144,"396":-0.3670956790447235,"397":1.0297951698303223,"398":-0.04597257077693939,"399":-0.3938590884208679}},"forgetBias":{"rows":20,"columns":1,"weights":{"0":0,"1":0,"2":0,"3":0,"4":0,"5":0,"6":0,"7":0,"8":0,"9":0,"10":0,"11":0,"12":0,"13":0,"14":0,"15":0,"16":0,"17":0,"18":0,"19":0}},"outputMatrix":{"rows":20,"columns":13,"weights":{"0":4.100564479827881,"1":-2.6483654975891113,"2":0.5329902768135071,"3":1.018467664718628,"4":-0.26860547065734863,"5":0.3769506514072418,"6":-0.5147616863250732,"7":-1.753691554069519,"8":0.6160344481468201,"9":-0.05387256667017937,"10":-2.7792015075683594,"11":0.7607607841491699,"12":0.2524298429489136,"13":0.8751910328865051,"14":0.9147341847419739,"15":-1.6515311002731323,"16":-1.2096384763717651,"17":0.29296815395355225,"18":-2.2931878566741943,"19":1.022728443145752,"20":0.5848597288131714,"21":-2.2337284088134766,"22":1.5574469566345215,"23":-1.560180425643921,"24":-1.7451642751693726,"25":-2.211522102355957,"26":-0.277346670627594,"27":0.5685539245605469,"28":0.20220473408699036,"29":0.7911339998245239,"30":0.25639405846595764,"31":-1.7947384119033813,"32":-1.5939245223999023,"33":-0.9851343631744385,"34":-1.0552526712417603,"35":-0.10587332397699356,"36":-0.23251976072788239,"37":-0.018598301336169243,"38":-1.545868158340454,"39":0.05971507728099823,"40":1.8362356424331665,"41":-0.8626829981803894,"42":-0.917210042476654,"43":-0.9421970248222351,"44":-1.1748032569885254,"45":0.5915336012840271,"46":0.20251908898353577,"47":-2.1092982292175293,"48":2.4032528400421143,"49":0.49120983481407166,"50":-0.3744492828845978,"51":-1.626084804534912,"52":-1.1278165578842163,"53":4.046890735626221,"54":0.29525917768478394,"55":0.3213309347629547,"56":-1.0624064207077026,"57":-1.2928136587142944,"58":0.11120031028985977,"59":0.911577045917511,"60":-2.2841055393218994,"61":-0.654075562953949,"62":0.015052314847707748,"63":-1.1629213094711304,"64":-0.5849835276603699,"65":2.451688051223755,"66":-0.5682615637779236,"67":1.4288862943649292,"68":-0.11384765058755875,"69":-0.2646557688713074,"70":-0.7604741454124451,"71":-2.4405739307403564,"72":-2.103541135787964,"73":-0.3517115116119385,"74":-2.9127869606018066,"75":-2.71370267868042,"76":1.344029188156128,"77":2.6913671493530273,"78":0.6099410057067871,"79":-0.3268880546092987,"80":1.8502025604248047,"81":-0.13640539348125458,"82":-1.2428579330444336,"83":-0.1403961032629013,"84":1.3946466445922852,"85":-0.5555486679077148,"86":-0.798053503036499,"87":-0.679057240486145,"88":1.3669307231903076,"89":0.1793777048587799,"90":1.9639917612075806,"91":2.0135443210601807,"92":-1.3238277435302734,"93":1.168694257736206,"94":-2.3745906352996826,"95":-0.9200848340988159,"96":-1.6128034591674805,"97":0.5770538449287415,"98":0.47431090474128723,"99":0.10672174394130707,"100":-0.04156055301427841,"101":-0.8724508285522461,"102":-1.5518563985824585,"103":1.2243486642837524,"104":1.662829875946045,"105":-0.12293758243322372,"106":-2.668313980102539,"107":-2.38796329498291,"108":2.20125412940979,"109":-0.30170613527297974,"110":0.4262951612472534,"111":1.1257376670837402,"112":0.022039826959371567,"113":5.055398464202881,"114":1.590000033378601,"115":-1.5935626029968262,"116":-1.6252578496932983,"117":0.4425932466983795,"118":-0.1747213900089264,"119":1.4602434635162354,"120":0.18763887882232666,"121":-0.2840437591075897,"122":0.35487160086631775,"123":-3.39983868598938,"124":-1.7929308414459229,"125":0.29240384697914124,"126":-1.7401251792907715,"127":-1.9233331680297852,"128":0.48653292655944824,"129":1.9400156736373901,"130":-1.3924976587295532,"131":2.5925726890563965,"132":0.936174750328064,"133":-0.7642083168029785,"134":0.07511559128761292,"135":-0.8718653321266174,"136":-0.3949865698814392,"137":0.06679705530405045,"138":-0.8744781613349915,"139":-1.748871922492981,"140":0.11187069118022919,"141":-1.5847347974777222,"142":-0.2253304272890091,"143":-0.6939443349838257,"144":1.8421649932861328,"145":-0.8249846696853638,"146":-1.2540203332901,"147":-1.7110658884048462,"148":-0.09056290239095688,"149":2.0236611366271973,"150":2.4836339950561523,"151":-0.7190836668014526,"152":0.4684564471244812,"153":0.6200700402259827,"154":-1.332684874534607,"155":-0.4196118414402008,"156":-1.3367995023727417,"157":1.0501145124435425,"158":0.05981053039431572,"159":-2.472158670425415,"160":-2.7853546142578125,"161":-1.700681447982788,"162":-0.5170052647590637,"163":-0.5012672543525696,"164":0.4153624475002289,"165":-1.5793418884277344,"166":-2.5204455852508545,"167":-0.9155700206756592,"168":1.1740589141845703,"169":0.9355230331420898,"170":-2.449449300765991,"171":2.897852659225464,"172":2.522681951522827,"173":0.6854365468025208,"174":-0.14220820367336273,"175":-1.0938608646392822,"176":-1.639176607131958,"177":1.6079866886138916,"178":-2.870795488357544,"179":-0.8051176071166992,"180":2.638580083847046,"181":2.5849342346191406,"182":-3.290585994720459,"183":3.5466701984405518,"184":-2.127596616744995,"185":-1.454817295074463,"186":-0.5605109333992004,"187":-0.20517177879810333,"188":0.059412382543087006,"189":2.3238344192504883,"190":-0.5226433873176575,"191":-1.1691433191299438,"192":-0.32524487376213074,"193":-1.3052268028259277,"194":-1.0933009386062622,"195":-0.6920485496520996,"196":-0.0850839912891388,"197":1.8572132587432861,"198":-0.3223397135734558,"199":-0.9918142557144165,"200":-0.4330903887748718,"201":0.019512968137860298,"202":-0.2536535859107971,"203":-0.33665943145751953,"204":-1.997541069984436,"205":0.6564701199531555,"206":0.5453155636787415,"207":1.029789686203003,"208":-0.02863972634077072,"209":0.4849628806114197,"210":1.5027811527252197,"211":0.4266741871833801,"212":1.111953616142273,"213":-1.2856258153915405,"214":-1.2513010501861572,"215":0.7558910846710205,"216":-1.3436732292175293,"217":-1.4464575052261353,"218":0.5582196712493896,"219":0.4055595099925995,"220":0.8202776908874512,"221":3.125429153442383,"222":-0.7045249938964844,"223":1.830225944519043,"224":2.1348800659179688,"225":1.5232845544815063,"226":-0.1833186000585556,"227":-1.170754075050354,"228":-0.9545462727546692,"229":-0.9224408864974976,"230":-1.432416319847107,"231":0.7849117517471313,"232":2.0448074340820312,"233":-1.075837254524231,"234":1.1916191577911377,"235":-2.263615846633911,"236":0.19239388406276703,"237":0.8850799202919006,"238":0.3105497360229492,"239":1.0102317333221436,"240":-2.2866480350494385,"241":-1.2096203565597534,"242":1.5968499183654785,"243":-0.7853482365608215,"244":-1.3098417520523071,"245":1.6652436256408691,"246":2.383610248565674,"247":0.5545456409454346,"248":1.2637007236480713,"249":-0.902381420135498,"250":-2.9150078296661377,"251":-0.7488709092140198,"252":-1.4488461017608643,"253":-1.3227893114089966,"254":-1.116006851196289,"255":-0.4737722873687744,"256":0.8893924951553345,"257":-1.092677116394043,"258":-0.6824463605880737,"259":0.13209500908851624}},"outputHidden":{"rows":20,"columns":20,"weights":{"0":-3.474273443222046,"1":0.5617952942848206,"2":1.3516912460327148,"3":-1.2176756858825684,"4":1.8392223119735718,"5":0.1124226525425911,"6":-0.3626474142074585,"7":4.322629451751709,"8":0.7501447796821594,"9":-0.9151487350463867,"10":0.10633913427591324,"11":-0.770460844039917,"12":0.6787267923355103,"13":-1.2321959733963013,"14":1.7196937799453735,"15":-0.26868346333503723,"16":2.9983444213867188,"17":2.137988805770874,"18":0.22683937847614288,"19":-0.9325773119926453,"20":1.4022672176361084,"21":-0.7640534043312073,"22":-0.6982594728469849,"23":-0.9548844695091248,"24":-2.3920295238494873,"25":2.148960828781128,"26":0.33648601174354553,"27":-1.949592113494873,"28":-2.0602052211761475,"29":3.70025897026062,"30":-0.7524142265319824,"31":0.6438320279121399,"32":1.9733575582504272,"33":-1.4485124349594116,"34":-0.8680781722068787,"35":0.1546797752380371,"36":0.8819106817245483,"37":-0.25285840034484863,"38":-0.24797998368740082,"39":1.134305715560913,"40":-0.06247226521372795,"41":5.238890647888184,"42":0.4088955819606781,"43":4.597076892852783,"44":-3.7697277069091797,"45":0.3260153532028198,"46":3.7108840942382812,"47":-0.7471649050712585,"48":-0.06996959447860718,"49":-3.893916130065918,"50":-3.096280097961426,"51":2.0243685245513916,"52":-3.909790515899658,"53":0.0880560651421547,"54":-6.1604204177856445,"55":-0.6231609582901001,"56":3.340813159942627,"57":-2.271350383758545,"58":1.2338002920150757,"59":-1.1831591129302979,"60":0.9027343392372131,"61":1.2938618659973145,"62":1.755362868309021,"63":-2.7603657245635986,"64":1.5755966901779175,"65":0.12406227737665176,"66":-0.5197057127952576,"67":-3.4241747856140137,"68":0.071714386343956,"69":-1.065529227256775,"70":2.5441319942474365,"71":1.0323163270950317,"72":-0.4507182240486145,"73":-1.8677393198013306,"74":-2.6205332279205322,"75":-1.1482971906661987,"76":-1.2893328666687012,"77":0.027957146987318993,"78":0.653293251991272,"79":3.014164924621582,"80":-0.30303844809532166,"81":0.504738450050354,"82":-1.120453119277954,"83":2.888850688934326,"84":-4.48373556137085,"85":0.7542047500610352,"86":0.5562621355056763,"87":2.7770843505859375,"88":0.04407288506627083,"89":-0.9880475401878357,"90":-3.2525641918182373,"91":4.733142375946045,"92":-2.3465521335601807,"93":-1.831233263015747,"94":-1.16828191280365,"95":2.2297821044921875,"96":-1.3378167152404785,"97":-2.439495801925659,"98":3.711622714996338,"99":-2.963416814804077,"100":1.8257492780685425,"101":4.007897853851318,"102":4.498545169830322,"103":0.9189130663871765,"104":1.7963523864746094,"105":-1.3012524843215942,"106":2.801654815673828,"107":-1.2343175411224365,"108":1.2754855155944824,"109":0.1944476217031479,"110":-2.263641595840454,"111":-0.1983991265296936,"112":-1.3447670936584473,"113":1.7077960968017578,"114":-0.31364911794662476,"115":-2.2569737434387207,"116":4.709482192993164,"117":0.594271183013916,"118":-0.018876485526561737,"119":1.2570346593856812,"120":-1.050750732421875,"121":-0.36616671085357666,"122":-1.4798392057418823,"123":0.952831506729126,"124":1.9147921800613403,"125":1.1884757280349731,"126":0.7246297597885132,"127":-1.618147850036621,"128":0.1535734236240387,"129":3.736151933670044,"130":1.1204315423965454,"131":-1.0494201183319092,"132":-0.34490543603897095,"133":-1.523516297340393,"134":-1.7714860439300537,"135":0.7804840803146362,"136":0.27259665727615356,"137":-0.8436442017555237,"138":0.1926916390657425,"139":2.289548635482788,"140":-0.7675989270210266,"141":3.54862117767334,"142":2.0690157413482666,"143":2.520719528198242,"144":2.5991263389587402,"145":2.7314701080322266,"146":0.1766221672296524,"147":0.07959204167127609,"148":4.3826518058776855,"149":4.173507213592529,"150":-1.0782831907272339,"151":-1.5991342067718506,"152":0.5100399851799011,"153":-0.3127766251564026,"154":0.49002331495285034,"155":-0.4511975944042206,"156":-0.30130791664123535,"157":2.766841173171997,"158":-2.294351577758789,"159":-0.02321677841246128,"160":-0.3136124908924103,"161":2.7662453651428223,"162":1.3409123420715332,"163":0.1375531405210495,"164":0.8395408987998962,"165":4.780794143676758,"166":0.10385927557945251,"167":-3.035017251968384,"168":-2.176102638244629,"169":1.2081729173660278,"170":0.23424440622329712,"171":-1.0376781225204468,"172":0.2278948873281479,"173":-0.4408937096595764,"174":-2.4702999591827393,"175":-4.53253173828125,"176":0.8454925417900085,"177":-2.114710807800293,"178":0.23839178681373596,"179":2.005309820175171,"180":-1.705527424812317,"181":3.550771474838257,"182":4.040616512298584,"183":0.771336019039154,"184":2.9634408950805664,"185":3.9604737758636475,"186":2.5809764862060547,"187":1.1180437803268433,"188":1.7509866952896118,"189":0.3746893107891083,"190":-2.366121530532837,"191":-2.036532163619995,"192":-0.9803147315979004,"193":-1.7393245697021484,"194":0.03779182583093643,"195":-1.8875831365585327,"196":3.6057958602905273,"197":1.409010648727417,"198":-1.5646523237228394,"199":-0.5093086957931519,"200":-3.4081196784973145,"201":0.47994744777679443,"202":4.8886613845825195,"203":0.7732878923416138,"204":-2.125361204147339,"205":2.9416422843933105,"206":1.9868887662887573,"207":-0.01203758455812931,"208":-0.6149634122848511,"209":3.839428186416626,"210":-4.3941545486450195,"211":2.2089970111846924,"212":-1.9710379838943481,"213":0.5135476589202881,"214":-1.9635587930679321,"215":-1.8309283256530762,"216":0.307407021522522,"217":1.2070655822753906,"218":-1.6478312015533447,"219":-1.1187939643859863,"220":0.6418663859367371,"221":-2.2482099533081055,"222":-2.5453200340270996,"223":-1.3104171752929688,"224":-1.1554572582244873,"225":0.08110454678535461,"226":-1.0171468257904053,"227":0.46562984585762024,"228":-2.2462990283966064,"229":3.2038075923919678,"230":0.39684852957725525,"231":1.9855899810791016,"232":2.3491642475128174,"233":-1.2818959951400757,"234":-0.28514429926872253,"235":-0.3063960373401642,"236":0.08150899410247803,"237":4.123322486877441,"238":-0.40354013442993164,"239":4.533140659332275,"240":-2.65669846534729,"241":3.7398593425750732,"242":-0.5072030425071716,"243":5.508796215057373,"244":2.081141471862793,"245":1.6884117126464844,"246":1.7433077096939087,"247":-0.17466621100902557,"248":2.327930450439453,"249":2.5950300693511963,"250":-0.3896377384662628,"251":-2.7534067630767822,"252":1.3589333295822144,"253":-0.9078307747840881,"254":2.224069595336914,"255":-0.9304928779602051,"256":2.0304057598114014,"257":1.6992223262786865,"258":-3.758258104324341,"259":0.9138261675834656,"260":1.0067777633666992,"261":-0.04206721484661102,"262":-0.9535623788833618,"263":-0.716301441192627,"264":-0.8714847564697266,"265":0.7497836351394653,"266":-2.4047298431396484,"267":-1.1110448837280273,"268":3.243532180786133,"269":0.8046271204948425,"270":1.2665637731552124,"271":-0.669079065322876,"272":0.6015863418579102,"273":0.5131288170814514,"274":2.809643507003784,"275":1.0722554922103882,"276":-0.6502057909965515,"277":-0.31412479281425476,"278":1.8448134660720825,"279":3.6125295162200928,"280":3.4873454570770264,"281":-4.4908447265625,"282":-0.3150995075702667,"283":-1.920099139213562,"284":-1.9167190790176392,"285":0.3151254653930664,"286":-0.9305557012557983,"287":0.9462053179740906,"288":-2.8728833198547363,"289":5.457674980163574,"290":0.9727985858917236,"291":-0.3023354709148407,"292":-0.5837304592132568,"293":0.9831942319869995,"294":1.4528119564056396,"295":-1.0080780982971191,"296":-0.7994005084037781,"297":0.7860851287841797,"298":-0.6256685853004456,"299":1.0525826215744019,"300":5.312777996063232,"301":4.719883918762207,"302":2.7489771842956543,"303":3.7022342681884766,"304":-0.10289932787418365,"305":1.6975055932998657,"306":2.2243599891662598,"307":1.4722431898117065,"308":0.8482999801635742,"309":-3.959303140640259,"310":-4.6800971031188965,"311":-1.1751817464828491,"312":-3.3646650314331055,"313":1.9464935064315796,"314":-0.5599958896636963,"315":-0.4397598206996918,"316":0.4124218225479126,"317":-0.10149094462394714,"318":-1.5306659936904907,"319":-1.7068637609481812,"320":2.407543897628784,"321":1.2952096462249756,"322":-2.656334161758423,"323":-2.7386367321014404,"324":1.8500005006790161,"325":-2.114654541015625,"326":0.7353183627128601,"327":4.317816734313965,"328":-3.6714606285095215,"329":0.16116048395633698,"330":-1.8517073392868042,"331":-0.3876259922981262,"332":4.108794689178467,"333":3.848386526107788,"334":-2.8783810138702393,"335":1.5464597940444946,"336":-0.7280580997467041,"337":-0.8215295672416687,"338":2.156696081161499,"339":-0.6104714870452881,"340":-0.6428354382514954,"341":-1.4976578950881958,"342":-3.0713093280792236,"343":-1.3913546800613403,"344":3.411975383758545,"345":-1.1555063724517822,"346":-2.22594952583313,"347":4.335953712463379,"348":1.8487772941589355,"349":-3.0627682209014893,"350":-2.3213095664978027,"351":1.850155234336853,"352":7.258485794067383,"353":-0.759848952293396,"354":0.7780184149742126,"355":1.6058822870254517,"356":1.913543939590454,"357":1.9297456741333008,"358":1.0662907361984253,"359":3.4280202388763428,"360":-0.5508512258529663,"361":-1.547755241394043,"362":-1.7721706628799438,"363":-0.424191415309906,"364":-0.5485568046569824,"365":-2.7095444202423096,"366":1.1316741704940796,"367":1.6804529428482056,"368":-2.346261978149414,"369":-0.40061846375465393,"370":2.5770232677459717,"371":-0.6736664772033691,"372":3.0882794857025146,"373":-0.22305890917778015,"374":0.08195047080516815,"375":0.2852293848991394,"376":-1.663088083267212,"377":0.8646553754806519,"378":-1.3472445011138916,"379":0.480753093957901,"380":-1.5494816303253174,"381":-0.2574819326400757,"382":0.9167019724845886,"383":-0.8583411574363708,"384":-2.399876594543457,"385":3.0677108764648438,"386":-1.8004761934280396,"387":-3.7166385650634766,"388":-2.8314619064331055,"389":1.8962255716323853,"390":0.7681463956832886,"391":1.7550607919692993,"392":-0.7326141595840454,"393":-0.32495009899139404,"394":-1.2025095224380493,"395":4.382745742797852,"396":-1.622482180595398,"397":0.1937117874622345,"398":-0.34136247634887695,"399":3.864280939102173}},"outputBias":{"rows":20,"columns":1,"weights":{"0":-0.9089360237121582,"1":-2.7590672969818115,"2":-0.7521564960479736,"3":-1.0592269897460938,"4":4.45015811920166,"5":-1.3289434909820557,"6":0.532984733581543,"7":-0.09429418295621872,"8":2.464953899383545,"9":0.1612134873867035,"10":-0.3741896152496338,"11":1.950088381767273,"12":-0.4537527561187744,"13":-1.6235603094100952,"14":1.775953769683838,"15":-2.1311771869659424,"16":-2.3848965167999268,"17":-1.3162791728973389,"18":0.9500798583030701,"19":-0.9692888259887695}},"cellActivationMatrix":{"rows":20,"columns":13,"weights":{"0":-0.9501652717590332,"1":0.9707621932029724,"2":1.2187820672988892,"3":0.9727357029914856,"4":-0.7631698250770569,"5":-0.049774378538131714,"6":-1.5352216958999634,"7":-0.8932139873504639,"8":-1.2711896896362305,"9":-0.15626521408557892,"10":-1.3058991432189941,"11":1.0806635618209839,"12":-2.0959317684173584,"13":-0.9114933609962463,"14":1.6865558624267578,"15":-0.7890812158584595,"16":-2.3933823108673096,"17":0.09966395795345306,"18":-1.7677351236343384,"19":-1.3165132999420166,"20":0.07286927849054337,"21":-0.8159871697425842,"22":-0.21455170214176178,"23":-1.868062138557434,"24":-1.9952540397644043,"25":-0.2797301709651947,"26":0.13055554032325745,"27":2.147385835647583,"28":-0.531862199306488,"29":-1.6826363801956177,"30":1.0949294567108154,"31":-1.4549696445465088,"32":-0.11591697484254837,"33":1.7237063646316528,"34":-0.6490591764450073,"35":0.5983688235282898,"36":0.08768264204263687,"37":-1.4952654838562012,"38":-1.295323371887207,"39":0.43237826228141785,"40":-0.15406332910060883,"41":-1.0995181798934937,"42":-1.087159276008606,"43":-1.5195894241333008,"44":-1.921038269996643,"45":1.6875431537628174,"46":-1.5296441316604614,"47":-0.28653907775878906,"48":2.351917266845703,"49":1.3685771226882935,"50":-1.3475642204284668,"51":-1.3426458835601807,"52":0.7228363752365112,"53":-0.4510311484336853,"54":-1.7496583461761475,"55":-1.2998723983764648,"56":-0.7074418663978577,"57":-0.2037266492843628,"58":1.5366255044937134,"59":-0.33644193410873413,"60":0.11337799578905106,"61":1.8284024000167847,"62":1.6969735622406006,"63":0.30421650409698486,"64":-0.04857872053980827,"65":0.17410579323768616,"66":1.04060959815979,"67":-0.18968220055103302,"68":-0.8638837337493896,"69":1.7317618131637573,"70":-1.5663163661956787,"71":0.8438959717750549,"72":0.5788360834121704,"73":-1.5718514919281006,"74":0.7697981595993042,"75":0.6682460904121399,"76":-1.1269348859786987,"77":-0.6832792162895203,"78":-1.0406447649002075,"79":0.4608580768108368,"80":-0.2311011254787445,"81":-1.0974363088607788,"82":-1.4506841897964478,"83":-0.6343873143196106,"84":0.1984557956457138,"85":-0.20503979921340942,"86":0.576897382736206,"87":-1.4347329139709473,"88":-0.6646162867546082,"89":-0.07653602212667465,"90":1.0239046812057495,"91":0.6091835498809814,"92":-1.3453816175460815,"93":-1.3608055114746094,"94":-1.4814081192016602,"95":-0.2540179193019867,"96":0.7052865624427795,"97":-0.8609999418258667,"98":0.6065284013748169,"99":4.539426803588867,"100":-1.4095457792282104,"101":-2.000431537628174,"102":-0.6511523127555847,"103":2.554159164428711,"104":-1.0182112455368042,"105":-0.18589961528778076,"106":-1.803929328918457,"107":-0.34381532669067383,"108":-0.5126607418060303,"109":0.006912566255778074,"110":1.4806452989578247,"111":2.115291118621826,"112":0.44517645239830017,"113":1.6690630912780762,"114":2.1203486919403076,"115":0.5448331832885742,"116":-1.1285890340805054,"117":0.11939075589179993,"118":1.0398253202438354,"119":-0.8611804842948914,"120":-0.5041249394416809,"121":0.65792316198349,"122":-2.0419671535491943,"123":1.0999412536621094,"124":0.5600255131721497,"125":-1.3271650075912476,"126":1.7827321290969849,"127":1.3832728862762451,"128":-1.0355424880981445,"129":-1.1092768907546997,"130":1.5364117622375488,"131":-1.5552341938018799,"132":1.4677706956863403,"133":2.5112013816833496,"134":0.7144542336463928,"135":-1.1285728216171265,"136":2.009835958480835,"137":-0.8039206266403198,"138":-1.3668116331100464,"139":-0.9665484428405762,"140":1.5274730920791626,"141":1.466376781463623,"142":-0.7948081493377686,"143":1.1531544923782349,"144":-0.7118127942085266,"145":-0.47525346279144287,"146":-1.803277850151062,"147":-1.0594878196716309,"148":0.06593107432126999,"149":-0.19105665385723114,"150":0.265209823846817,"151":-0.9282391667366028,"152":0.349448561668396,"153":-2.542571783065796,"154":-0.4717191755771637,"155":1.430626630783081,"156":0.21630579233169556,"157":-0.5100359320640564,"158":0.7308127284049988,"159":1.0011552572250366,"160":-0.8213546276092529,"161":0.0036741953808814287,"162":1.2431800365447998,"163":0.9235194325447083,"164":0.6202102899551392,"165":-0.5092746615409851,"166":1.8800946474075317,"167":0.983274519443512,"168":0.1808980107307434,"169":0.9114247560501099,"170":0.39368170499801636,"171":0.6293983459472656,"172":0.3482460677623749,"173":0.7933393120765686,"174":1.6304634809494019,"175":-0.8362174034118652,"176":0.814803957939148,"177":1.2987765073776245,"178":-0.9866143465042114,"179":-0.13039520382881165,"180":0.518867015838623,"181":-0.5288422703742981,"182":-1.6763511896133423,"183":1.091320276260376,"184":-0.45346981287002563,"185":0.8990359306335449,"186":1.0582945346832275,"187":0.41722506284713745,"188":-2.590665578842163,"189":0.733015775680542,"190":-0.018813185393810272,"191":-1.3163400888442993,"192":-0.42877161502838135,"193":0.30349069833755493,"194":0.2195071578025818,"195":-0.6506412625312805,"196":1.222655177116394,"197":-0.5668155550956726,"198":-0.16507373750209808,"199":0.8625280857086182,"200":0.7415168285369873,"201":-0.8688951730728149,"202":1.5306150913238525,"203":0.6245166659355164,"204":-0.7127853631973267,"205":-0.31235286593437195,"206":0.061962272971868515,"207":0.18315641582012177,"208":-1.3839560747146606,"209":-0.7687714099884033,"210":-2.2228665351867676,"211":-0.9457393288612366,"212":0.006144917104393244,"213":0.04646943882107735,"214":2.34472393989563,"215":0.6387252807617188,"216":0.09998618811368942,"217":0.6734945774078369,"218":3.3836541175842285,"219":-1.2307159900665283,"220":0.018225479871034622,"221":0.3264579474925995,"222":-0.8272654414176941,"223":0.8691429495811462,"224":0.8273932933807373,"225":1.0021954774856567,"226":-1.0963857173919678,"227":0.7679303884506226,"228":1.6609838008880615,"229":1.3018563985824585,"230":-0.5501466989517212,"231":2.416863441467285,"232":1.383280634880066,"233":1.0417418479919434,"234":-0.3021635115146637,"235":0.3589878976345062,"236":-0.8164893984794617,"237":-1.3276149034500122,"238":-2.3461198806762695,"239":0.8477205634117126,"240":-3.3761558532714844,"241":-2.4952080249786377,"242":0.1848069578409195,"243":-0.10314337909221649,"244":-4.785265922546387,"245":-1.0751426219940186,"246":0.47603118419647217,"247":0.26510727405548096,"248":-0.7137766480445862,"249":-0.025518983602523804,"250":0.6628740429878235,"251":1.4298012256622314,"252":1.688979148864746,"253":0.4216635227203369,"254":0.38971102237701416,"255":-0.8045596480369568,"256":0.1992655098438263,"257":0.8180379271507263,"258":1.1757372617721558,"259":-0.5073723793029785}},"cellActivationHidden":{"rows":20,"columns":20,"weights":{"0":0.8059821128845215,"1":0.8357009291648865,"2":-0.09735437482595444,"3":-0.5907084345817566,"4":1.7480440139770508,"5":-0.742175281047821,"6":2.4452950954437256,"7":0.4191448986530304,"8":-0.31200021505355835,"9":0.3605019450187683,"10":-0.8837670683860779,"11":-1.2022207975387573,"12":-0.9350346922874451,"13":-1.3465359210968018,"14":1.1543240547180176,"15":-1.0664362907409668,"16":-2.299306631088257,"17":-2.755666732788086,"18":1.1788357496261597,"19":-0.7141088843345642,"20":0.7764090299606323,"21":0.5726434588432312,"22":1.7679908275604248,"23":-0.8545815944671631,"24":1.4214587211608887,"25":1.9321638345718384,"26":0.9073461890220642,"27":1.4054621458053589,"28":2.285335063934326,"29":0.8290901780128479,"30":0.20696818828582764,"31":-0.8336576819419861,"32":0.5511578321456909,"33":-0.7827456593513489,"34":1.9962997436523438,"35":-0.09020186960697174,"36":0.6442911624908447,"37":-0.056608669459819794,"38":0.7083697319030762,"39":1.184332251548767,"40":-1.3790961503982544,"41":-1.2273825407028198,"42":-1.1971495151519775,"43":-2.2674131393432617,"44":0.6354213953018188,"45":3.1132559776306152,"46":-2.1507787704467773,"47":-2.0671439170837402,"48":0.4805954694747925,"49":0.3064008951187134,"50":0.9249969720840454,"51":-0.5192630290985107,"52":0.940283477306366,"53":-1.1240952014923096,"54":1.5441741943359375,"55":1.167036771774292,"56":1.1283212900161743,"57":1.2638601064682007,"58":0.4251822233200073,"59":2.40608286857605,"60":-0.5404847860336304,"61":-1.0850050449371338,"62":-1.3619920015335083,"63":-0.608399510383606,"64":0.02530953474342823,"65":-0.8917762041091919,"66":-1.209383487701416,"67":-0.7262799739837646,"68":1.2756712436676025,"69":-0.18340849876403809,"70":-0.510603129863739,"71":1.693204402923584,"72":1.4884940385818481,"73":0.03155122324824333,"74":1.2245711088180542,"75":0.9236522316932678,"76":0.3718681335449219,"77":-0.8597821593284607,"78":-0.7115082740783691,"79":1.9313174486160278,"80":-0.32807621359825134,"81":4.520977973937988,"82":2.0295257568359375,"83":1.3564223051071167,"84":-3.3358314037323,"85":5.634030818939209,"86":1.3239439725875854,"87":-1.922685980796814,"88":-0.14119870960712433,"89":3.4050378799438477,"90":-2.653979778289795,"91":-0.3442430794239044,"92":-1.4571518898010254,"93":-0.5001783967018127,"94":-0.8658105134963989,"95":-2.177055597305298,"96":2.3821451663970947,"97":1.0657293796539307,"98":-2.196103811264038,"99":-0.36670902371406555,"100":1.5513328313827515,"101":-0.8320368528366089,"102":-0.10393311083316803,"103":-1.1451612710952759,"104":-0.02811109647154808,"105":-0.250378280878067,"106":-0.06264685839414597,"107":-1.3536571264266968,"108":-0.629896342754364,"109":-0.4669050872325897,"110":-1.1095446348190308,"111":1.2361878156661987,"112":-0.3485017716884613,"113":0.6970816850662231,"114":-0.0930086225271225,"115":0.1114473044872284,"116":0.32395368814468384,"117":-1.2585104703903198,"118":2.098928451538086,"119":1.1670427322387695,"120":-3.737191915512085,"121":-0.9379649758338928,"122":-1.3222360610961914,"123":1.1693941354751587,"124":-0.14137721061706543,"125":-0.07204535603523254,"126":2.846728563308716,"127":2.6101043224334717,"128":0.5230302214622498,"129":1.2220096588134766,"130":-1.105119228363037,"131":-0.07195834070444107,"132":1.6202433109283447,"133":-1.9387861490249634,"134":-0.5207149982452393,"135":1.9441944360733032,"136":-3.3724732398986816,"137":1.3193061351776123,"138":2.208644151687622,"139":0.6024744510650635,"140":3.198068618774414,"141":0.12228934466838837,"142":2.223074197769165,"143":0.38854682445526123,"144":-0.7939091324806213,"145":0.6473864912986755,"146":1.7174218893051147,"147":-1.057188630104065,"148":0.4608500897884369,"149":3.264331102371216,"150":0.6629539728164673,"151":-0.5829443335533142,"152":-0.7625462412834167,"153":1.6190747022628784,"154":-0.9894603490829468,"155":0.21043935418128967,"156":-1.4015737771987915,"157":1.6913847923278809,"158":-2.2186155319213867,"159":-0.1463518589735031,"160":3.1868233680725098,"161":0.11232831329107285,"162":-0.3390274941921234,"163":-2.747474193572998,"164":1.0104963779449463,"165":2.9605491161346436,"166":-0.9726318717002869,"167":-0.3285897970199585,"168":-2.0369300842285156,"169":2.409038782119751,"170":-0.2840519845485687,"171":-2.981253147125244,"172":0.714905858039856,"173":0.5481647253036499,"174":1.0296112298965454,"175":0.7734012603759766,"176":2.282003164291382,"177":2.2284600734710693,"178":-2.7820913791656494,"179":3.7610867023468018,"180":0.6250784397125244,"181":-0.6151902675628662,"182":0.013610929250717163,"183":0.7787297368049622,"184":1.590172529220581,"185":-1.6275702714920044,"186":0.01622781530022621,"187":-3.3977620601654053,"188":0.0295445304363966,"189":-0.4295143783092499,"190":-0.3062639832496643,"191":-0.09994640946388245,"192":-0.380938857793808,"193":1.1882679462432861,"194":-0.177114799618721,"195":2.615461826324463,"196":0.14050695300102234,"197":-1.5127718448638916,"198":-0.9793505072593689,"199":0.45071473717689514,"200":-0.6403450965881348,"201":0.9672291278839111,"202":3.7545948028564453,"203":-0.2821574807167053,"204":-0.14598821103572845,"205":0.8512723445892334,"206":-4.3799591064453125,"207":1.56076180934906,"208":4.0387139320373535,"209":-0.5781512260437012,"210":-1.385160207748413,"211":0.39857178926467896,"212":-1.0779927968978882,"213":0.673280656337738,"214":-0.6559374928474426,"215":-0.4484190344810486,"216":-1.170210599899292,"217":0.3756377100944519,"218":-1.8471364974975586,"219":-1.0640794038772583,"220":-1.9110766649246216,"221":-2.6912829875946045,"222":-0.216279536485672,"223":-3.3514211177825928,"224":-0.37726306915283203,"225":1.7110469341278076,"226":-2.0550615787506104,"227":-0.12814807891845703,"228":0.17154163122177124,"229":5.429989337921143,"230":-0.1560875028371811,"231":0.9544373154640198,"232":0.41461145877838135,"233":-2.276517629623413,"234":0.6819331049919128,"235":0.00740829948335886,"236":-1.8701828718185425,"237":1.2909308671951294,"238":-2.5461933612823486,"239":1.4147610664367676,"240":0.2449246346950531,"241":1.1640559434890747,"242":-2.8450636863708496,"243":-0.23012487590312958,"244":-1.1821389198303223,"245":-2.3454947471618652,"246":2.6291263103485107,"247":0.002732494380325079,"248":-1.1385465860366821,"249":0.025905517861247063,"250":0.15099312365055084,"251":1.0207924842834473,"252":-1.5445436239242554,"253":-1.7923232316970825,"254":-0.24338889122009277,"255":-3.968397855758667,"256":0.14755718410015106,"257":-0.41900575160980225,"258":2.0866506099700928,"259":0.19977055490016937,"260":2.473829507827759,"261":-1.6215486526489258,"262":-2.0763132572174072,"263":-1.6754635572433472,"264":2.1046624183654785,"265":-0.38084498047828674,"266":1.0288803577423096,"267":2.306203842163086,"268":-2.1659491062164307,"269":-3.041271209716797,"270":-2.4859609603881836,"271":1.6149097681045532,"272":3.7140116691589355,"273":-1.8452212810516357,"274":-0.9336516857147217,"275":2.4610517024993896,"276":-0.7640049457550049,"277":-1.7294188737869263,"278":2.9591453075408936,"279":1.4809143543243408,"280":-0.35073912143707275,"281":-0.6139115691184998,"282":-0.4677385091781616,"283":0.8093711137771606,"284":-1.392868161201477,"285":-1.4549293518066406,"286":0.41700881719589233,"287":-0.5961328744888306,"288":-1.5815662145614624,"289":-0.8777039051055908,"290":-1.2732892036437988,"291":-1.038203239440918,"292":-1.825496792793274,"293":-0.45423007011413574,"294":-2.2395243644714355,"295":0.9584928750991821,"296":0.28590503334999084,"297":-0.38438159227371216,"298":-0.639682948589325,"299":-0.820504367351532,"300":3.250746726989746,"301":2.032719612121582,"302":0.9474416375160217,"303":0.6291133165359497,"304":1.8566243648529053,"305":0.20686689019203186,"306":1.6394574642181396,"307":-0.6829758882522583,"308":-2.2848799228668213,"309":-1.2565680742263794,"310":-1.6163039207458496,"311":-1.1901887655258179,"312":-0.7674865126609802,"313":-1.4334421157836914,"314":-0.5974363088607788,"315":-1.3325140476226807,"316":1.942455768585205,"317":0.9909728169441223,"318":0.8854593634605408,"319":-2.6525511741638184,"320":-1.3819547891616821,"321":0.7055065631866455,"322":1.3804378509521484,"323":0.23822005093097687,"324":-0.11712971329689026,"325":1.9014253616333008,"326":-2.431466817855835,"327":-2.0054543018341064,"328":-0.34772783517837524,"329":0.9132161736488342,"330":1.6334418058395386,"331":1.0886116027832031,"332":-1.7709983587265015,"333":-0.6552698612213135,"334":-0.6470344066619873,"335":-0.74518221616745,"336":1.4253028631210327,"337":0.3027104437351227,"338":0.07607890665531158,"339":-0.7425333857536316,"340":-1.4004300832748413,"341":2.2335093021392822,"342":-1.7661231756210327,"343":2.1934773921966553,"344":1.3823461532592773,"345":-1.1944252252578735,"346":-1.0911144018173218,"347":-0.16798575222492218,"348":0.8711538910865784,"349":-2.004269599914551,"350":1.186518907546997,"351":-0.5692437887191772,"352":-0.7727454304695129,"353":-3.6971070766448975,"354":0.9218690395355225,"355":-0.2667691707611084,"356":1.059320330619812,"357":-3.113837957382202,"358":2.5575170516967773,"359":-1.9047751426696777,"360":-1.3948702812194824,"361":0.8885750770568848,"362":0.7137664556503296,"363":1.4244946241378784,"364":-0.1474858522415161,"365":1.147444248199463,"366":1.5371124744415283,"367":0.9180141687393188,"368":0.3310231566429138,"369":0.618890643119812,"370":-0.9952564239501953,"371":-1.6122556924819946,"372":0.7750937938690186,"373":-1.7285172939300537,"374":-1.4216892719268799,"375":-0.9337400794029236,"376":-0.37249648571014404,"377":0.8612885475158691,"378":-2.2851388454437256,"379":-0.3886982798576355,"380":-0.47964179515838623,"381":2.188915729522705,"382":2.5748817920684814,"383":1.0155607461929321,"384":-0.9669461846351624,"385":2.9141974449157715,"386":-0.6118417978286743,"387":-3.589918613433838,"388":0.4452518820762634,"389":-0.2027031034231186,"390":-1.7741361856460571,"391":0.6696121096611023,"392":-1.7502882480621338,"393":-2.223412275314331,"394":-2.0880043506622314,"395":-1.0952364206314087,"396":-0.26370882987976074,"397":-2.686826467514038,"398":2.3258678913116455,"399":-0.5026509165763855}},"cellActivationBias":{"rows":20,"columns":1,"weights":{"0":0.41012415289878845,"1":0.3776327669620514,"2":1.7371821403503418,"3":-0.7111644148826599,"4":3.16764235496521,"5":-3.441002368927002,"6":-0.7179606556892395,"7":0.12014184892177582,"8":3.962036609649658,"9":-0.11673925071954727,"10":-0.8030092120170593,"11":-1.2152007818222046,"12":0.7910944223403931,"13":-0.16184064745903015,"14":2.8947913646698,"15":0.6446804404258728,"16":-0.394883930683136,"17":-0.9706118702888489,"18":-1.0780563354492188,"19":-0.3330847918987274}}},{"inputMatrix":{"rows":20,"columns":20,"weights":{"0":-5.076663970947266,"1":-0.5433440804481506,"2":-0.0784996822476387,"3":2.6386559009552,"4":0.8081228137016296,"5":0.5919058322906494,"6":4.75945520401001,"7":1.3616198301315308,"8":0.015445045195519924,"9":1.579088568687439,"10":3.901451826095581,"11":-1.4468085765838623,"12":0.9728693962097168,"13":1.9663573503494263,"14":0.9032173156738281,"15":-4.041551113128662,"16":-0.9319590330123901,"17":2.166320323944092,"18":-0.874303936958313,"19":2.1789700984954834,"20":2.809462070465088,"21":-5.566359996795654,"22":-4.158052921295166,"23":-0.21088029444217682,"24":3.1294474601745605,"25":-1.1858539581298828,"26":-0.9882869720458984,"27":-3.741915225982666,"28":-0.8947509527206421,"29":1.0303609371185303,"30":0.5324169993400574,"31":-1.4755377769470215,"32":2.419200897216797,"33":-1.6685714721679688,"34":-0.3735782206058502,"35":0.828614354133606,"36":0.5523426532745361,"37":-2.491704225540161,"38":-0.2689327597618103,"39":0.9511186480522156,"40":1.2669124603271484,"41":-0.00427388958632946,"42":-0.9764640927314758,"43":0.817502498626709,"44":0.8021627068519592,"45":-0.7225084900856018,"46":-0.6764772534370422,"47":1.0692335367202759,"48":0.37207528948783875,"49":-0.22828303277492523,"50":0.968623161315918,"51":1.2301535606384277,"52":0.4608556926250458,"53":1.5051683187484741,"54":1.6826107501983643,"55":-0.3291708827018738,"56":-2.9754672050476074,"57":1.2272595167160034,"58":1.3839191198349,"59":1.2094194889068604,"60":-6.091399669647217,"61":0.31610357761383057,"62":0.12880465388298035,"63":3.447082281112671,"64":-2.323303699493408,"65":1.3832669258117676,"66":1.7709311246871948,"67":1.0589081048965454,"68":1.4663147926330566,"69":1.2621523141860962,"70":3.3201935291290283,"71":-0.9456146359443665,"72":-1.0914194583892822,"73":-1.6174293756484985,"74":-3.4962987899780273,"75":-3.6966986656188965,"76":-0.3862606883049011,"77":3.2352497577667236,"78":-2.1098978519439697,"79":-0.5249090194702148,"80":-2.488208293914795,"81":1.8003872632980347,"82":-0.9104782342910767,"83":3.840416193008423,"84":-0.09653276950120926,"85":-0.8950258493423462,"86":-1.2583013772964478,"87":0.569357693195343,"88":-1.797134280204773,"89":-0.3896605372428894,"90":0.21013593673706055,"91":-1.9455713033676147,"92":0.6442896723747253,"93":-5.106584548950195,"94":-3.2402141094207764,"95":-4.766942977905273,"96":3.4388060569763184,"97":2.714827060699463,"98":1.2455354928970337,"99":-0.5067371726036072,"100":1.833988070487976,"101":-1.9490926265716553,"102":1.1284890174865723,"103":-1.5076769590377808,"104":3.8833866119384766,"105":4.1618428230285645,"106":-0.7086149454116821,"107":-0.48078346252441406,"108":-2.2095978260040283,"109":-0.30086714029312134,"110":4.696837425231934,"111":-3.757678270339966,"112":4.186622619628906,"113":0.4987937808036804,"114":1.6782641410827637,"115":-0.17572419345378876,"116":1.8631335496902466,"117":1.4281874895095825,"118":-2.9706852436065674,"119":-1.1851046085357666,"120":0.3439509868621826,"121":1.2453131675720215,"122":0.6064148545265198,"123":0.029500771313905716,"124":2.346632480621338,"125":-1.0040550231933594,"126":-0.23594987392425537,"127":0.6780043244361877,"128":1.1035187244415283,"129":-1.312914490699768,"130":-0.08062835037708282,"131":0.3730972111225128,"132":-1.5466976165771484,"133":-0.4731683135032654,"134":1.1672643423080444,"135":0.543476402759552,"136":-0.059516653418540955,"137":0.9482738971710205,"138":-1.4398274421691895,"139":-0.44946974515914917,"140":-0.9825550317764282,"141":-1.349276065826416,"142":1.8060613870620728,"143":-0.3837614357471466,"144":0.11622790992259979,"145":1.8179303407669067,"146":-1.4575464725494385,"147":-0.3489467203617096,"148":2.072420597076416,"149":0.8662236332893372,"150":-3.2734227180480957,"151":-0.45457473397254944,"152":-0.3149648606777191,"153":3.414900541305542,"154":-0.586186408996582,"155":-0.6563988327980042,"156":2.0607798099517822,"157":0.00871313363313675,"158":-0.9180606007575989,"159":-1.8045967817306519,"160":-0.006898158695548773,"161":0.2408406287431717,"162":2.1164710521698,"163":0.37418174743652344,"164":-0.4390833079814911,"165":1.1626543998718262,"166":3.5501866340637207,"167":2.34098482131958,"168":3.2787818908691406,"169":-0.7136616110801697,"170":0.07710384577512741,"171":-1.9360992908477783,"172":0.002247027587145567,"173":-0.6518023610115051,"174":0.08510588854551315,"175":-2.7607855796813965,"176":-0.04733278602361679,"177":4.028469085693359,"178":-1.6122925281524658,"179":0.6619905233383179,"180":-3.8461015224456787,"181":2.870908498764038,"182":0.023790188133716583,"183":2.996087074279785,"184":0.14820750057697296,"185":2.8326728343963623,"186":-4.563126087188721,"187":-3.9300434589385986,"188":4.781867027282715,"189":3.9976017475128174,"190":1.7917898893356323,"191":0.6737315058708191,"192":0.9638249278068542,"193":0.5690504312515259,"194":-1.7002568244934082,"195":1.3457330465316772,"196":1.013952374458313,"197":-1.3488783836364746,"198":-3.724925994873047,"199":0.45468029379844666,"200":-1.032281756401062,"201":-1.6106337308883667,"202":0.22207064926624298,"203":-1.383719801902771,"204":-0.49813786149024963,"205":1.1712373495101929,"206":-2.2830283641815186,"207":-0.8035041093826294,"208":1.1387830972671509,"209":-0.23152048885822296,"210":2.297443151473999,"211":-0.7542350888252258,"212":-1.0042287111282349,"213":0.42556560039520264,"214":-1.5117723941802979,"215":-0.13228237628936768,"216":0.3489941656589508,"217":-0.28468841314315796,"218":0.15775112807750702,"219":-1.248866319656372,"220":0.019241347908973694,"221":0.08223976939916611,"222":-1.7113289833068848,"223":0.29997316002845764,"224":-2.2886080741882324,"225":-3.1400554180145264,"226":-1.8392009735107422,"227":0.8139034509658813,"228":2.404923439025879,"229":0.3925097584724426,"230":-0.08588341623544693,"231":-0.9372321367263794,"232":-2.24638295173645,"233":0.02756970003247261,"234":-2.614680767059326,"235":0.7717943787574768,"236":-1.9672929048538208,"237":-4.979419231414795,"238":1.1202491521835327,"239":-0.37807610630989075,"240":-6.392090320587158,"241":2.5835750102996826,"242":0.28562819957733154,"243":1.6271636486053467,"244":-1.3297759294509888,"245":4.039527416229248,"246":1.3255332708358765,"247":0.27000799775123596,"248":-3.725800037384033,"249":1.9825515747070312,"250":-2.1641201972961426,"251":1.1919856071472168,"252":-1.7015284299850464,"253":-2.3657689094543457,"254":-0.038631606847047806,"255":0.32814788818359375,"256":2.632180690765381,"257":1.8939205408096313,"258":-2.0694782733917236,"259":-1.3455700874328613,"260":0.21327465772628784,"261":1.0473495721817017,"262":-1.3780078887939453,"263":1.3386410474777222,"264":3.3239123821258545,"265":0.6585733890533447,"266":0.828174889087677,"267":0.33238154649734497,"268":-3.005885124206543,"269":1.0078479051589966,"270":0.3073008358478546,"271":-2.7689197063446045,"272":0.5138255953788757,"273":-0.11301323771476746,"274":-1.356887936592102,"275":-0.1722954660654068,"276":1.6669669151306152,"277":1.884427785873413,"278":-1.7054810523986816,"279":-0.24958977103233337,"280":-2.6142873764038086,"281":-1.4666368961334229,"282":-0.6955363750457764,"283":-0.5538743734359741,"284":0.19330722093582153,"285":1.1488815546035767,"286":-0.32595059275627136,"287":-0.7445095181465149,"288":-3.9105539321899414,"289":2.990935802459717,"290":4.6818156242370605,"291":0.2737870216369629,"292":-0.3594037592411041,"293":1.5591117143630981,"294":-1.136883020401001,"295":-1.7393550872802734,"296":0.9315211772918701,"297":-0.07248353958129883,"298":-3.8452091217041016,"299":1.3267972469329834,"300":-4.25211763381958,"301":1.5887154340744019,"302":-0.08778972178697586,"303":0.9096704721450806,"304":-0.5274006724357605,"305":1.379718542098999,"306":-2.142643451690674,"307":-0.5965608358383179,"308":-1.2954295873641968,"309":1.6985125541687012,"310":2.0633597373962402,"311":0.3822563886642456,"312":-1.3133955001831055,"313":2.021223783493042,"314":-4.885958671569824,"315":-1.0813425779342651,"316":-0.26733067631721497,"317":-0.8954899907112122,"318":-1.0909167528152466,"319":-1.6892305612564087,"320":-0.4303872883319855,"321":-0.990095317363739,"322":0.5167029500007629,"323":-1.0437501668930054,"324":-0.7324933409690857,"325":1.6994901895523071,"326":-0.472474604845047,"327":-1.000779151916504,"328":-0.47211992740631104,"329":2.812622308731079,"330":3.0102694034576416,"331":-1.9403541088104248,"332":-1.5335731506347656,"333":-0.21316133439540863,"334":-3.426830291748047,"335":-2.36427903175354,"336":-1.2141013145446777,"337":-2.8313279151916504,"338":-2.910510540008545,"339":-0.20497772097587585,"340":2.704691171646118,"341":0.04845438897609711,"342":-3.4728760719299316,"343":-2.8442156314849854,"344":2.1002752780914307,"345":-3.7014548778533936,"346":0.8622838854789734,"347":0.6324431300163269,"348":-1.5071240663528442,"349":-1.2263065576553345,"350":-0.14874038100242615,"351":1.289028525352478,"352":-0.7453225255012512,"353":1.8156346082687378,"354":-1.0035101175308228,"355":1.864105224609375,"356":-0.342503160238266,"357":-1.5951473712921143,"358":2.3052380084991455,"359":0.7878173589706421,"360":-0.10827084630727768,"361":1.0875022411346436,"362":0.6347572207450867,"363":0.02411678060889244,"364":-2.2406697273254395,"365":-2.9807515144348145,"366":-1.3627580404281616,"367":1.68589186668396,"368":0.31906065344810486,"369":-1.7653948068618774,"370":-2.0642755031585693,"371":2.12870717048645,"372":-1.9369444847106934,"373":-2.5019149780273438,"374":-1.1372754573822021,"375":3.0218889713287354,"376":-1.3276020288467407,"377":0.7996190190315247,"378":3.5165767669677734,"379":-0.48780906200408936,"380":-1.0852161645889282,"381":-1.9055187702178955,"382":-1.7811968326568604,"383":-1.999855637550354,"384":4.655046463012695,"385":-1.0733041763305664,"386":2.51776123046875,"387":-0.15212781727313995,"388":-0.15744037926197052,"389":-3.806364059448242,"390":-0.18400807678699493,"391":-0.8814690709114075,"392":3.964643716812134,"393":0.6820901036262512,"394":2.1333205699920654,"395":2.716885805130005,"396":1.7227669954299927,"397":4.835430145263672,"398":-0.8989863395690918,"399":2.333909273147583}},"inputHidden":{"rows":20,"columns":20,"weights":{"0":11.927081108093262,"1":-1.0437089204788208,"2":0.5031795501708984,"3":0.12812402844429016,"4":-0.5500131845474243,"5":2.8394970893859863,"6":1.7474230527877808,"7":-0.4903777241706848,"8":-0.21742813289165497,"9":-0.6492913365364075,"10":1.3045361042022705,"11":-0.5155668258666992,"12":-3.9716038703918457,"13":0.7838004231452942,"14":-3.1929478645324707,"15":2.846876621246338,"16":2.3572428226470947,"17":1.32334303855896,"18":-1.3258678913116455,"19":-1.2320054769515991,"20":2.551604986190796,"21":-3.7840569019317627,"22":-4.891213417053223,"23":3.2007534503936768,"24":2.3917171955108643,"25":6.343658924102783,"26":-0.869645893573761,"27":1.1987390518188477,"28":0.3696635663509369,"29":0.5293795466423035,"30":2.357034206390381,"31":3.7338857650756836,"32":-2.765831708908081,"33":1.7215992212295532,"34":-2.983607769012451,"35":1.7110227346420288,"36":-2.0629796981811523,"37":-1.9503694772720337,"38":-5.369339942932129,"39":-0.1512645184993744,"40":-1.2079353332519531,"41":1.5922868251800537,"42":-2.736510753631592,"43":0.8967087268829346,"44":-1.0026986598968506,"45":0.3712787330150604,"46":-1.10062575340271,"47":5.170070648193359,"48":1.41647207736969,"49":-1.3747586011886597,"50":4.913043975830078,"51":8.622370719909668,"52":-1.0896931886672974,"53":2.129300117492676,"54":-0.9577434062957764,"55":1.976453423500061,"56":1.548575758934021,"57":-1.4729472398757935,"58":1.5748717784881592,"59":0.8368490934371948,"60":3.5748679637908936,"61":-2.4352104663848877,"62":-3.0306758880615234,"63":1.0032761096954346,"64":0.10065443068742752,"65":5.022578716278076,"66":-2.9339582920074463,"67":0.31054258346557617,"68":-0.07420576363801956,"69":-0.7346941232681274,"70":0.20832720398902893,"71":0.46036702394485474,"72":-5.264336109161377,"73":1.3119845390319824,"74":0.8823040127754211,"75":0.2672227621078491,"76":-0.23501090705394745,"77":1.0709525346755981,"78":-1.9447989463806152,"79":-2.5979056358337402,"80":-1.7982076406478882,"81":1.289402723312378,"82":-0.8434980511665344,"83":4.433204650878906,"84":-1.6605256795883179,"85":1.0441302061080933,"86":1.3973567485809326,"87":0.337294340133667,"88":-3.7385594844818115,"89":0.5059662461280823,"90":1.5347144603729248,"91":5.24495792388916,"92":0.5940485596656799,"93":1.2094383239746094,"94":-0.9982464909553528,"95":-1.6027202606201172,"96":1.3848289251327515,"97":-0.1871156245470047,"98":-0.8602279424667358,"99":-0.2340727597475052,"100":2.998997449874878,"101":-0.49497488141059875,"102":0.7454003691673279,"103":-0.2684820294380188,"104":-0.11037678271532059,"105":0.312234103679657,"106":-0.9499304890632629,"107":-0.8432825803756714,"108":1.075347900390625,"109":-3.2783091068267822,"110":0.9528473615646362,"111":2.4703779220581055,"112":-1.5234661102294922,"113":1.5312844514846802,"114":-2.592414140701294,"115":-0.42515337467193604,"116":-0.04946525767445564,"117":-3.4904685020446777,"118":2.1934070587158203,"119":-2.478302001953125,"120":-0.9518783688545227,"121":4.365893840789795,"122":-0.37458446621894836,"123":0.41275548934936523,"124":0.9809757471084595,"125":4.709070205688477,"126":-6.605278491973877,"127":1.0840131044387817,"128":-0.7690370082855225,"129":0.8513773679733276,"130":2.3619558811187744,"131":2.2283501625061035,"132":-5.401593208312988,"133":1.3969933986663818,"134":-0.5476288199424744,"135":-0.9544756412506104,"136":-0.3894805908203125,"137":3.5290844440460205,"138":-2.174652576446533,"139":2.738379716873169,"140":-2.9989373683929443,"141":0.3264319598674774,"142":1.4206043481826782,"143":-3.395807981491089,"144":-1.9717252254486084,"145":-1.755696415901184,"146":-3.9747016429901123,"147":-0.6124190092086792,"148":-4.602634906768799,"149":1.1761901378631592,"150":1.1912087202072144,"151":-0.04291703179478645,"152":0.03904655948281288,"153":-1.3646925687789917,"154":-1.35939621925354,"155":-0.9330600500106812,"156":-5.411934852600098,"157":-0.2072419971227646,"158":6.490163803100586,"159":-0.45016372203826904,"160":-1.3950135707855225,"161":-2.282954692840576,"162":-6.8067169189453125,"163":3.225651264190674,"164":0.02426287531852722,"165":4.552568435668945,"166":-1.8137600421905518,"167":0.7630574703216553,"168":-7.150367259979248,"169":-6.00919771194458,"170":-1.7945619821548462,"171":0.8906038999557495,"172":0.348897248506546,"173":1.7507554292678833,"174":-3.0230181217193604,"175":-1.090622901916504,"176":-0.907075822353363,"177":0.4915391504764557,"178":-1.0994051694869995,"179":-1.8784189224243164,"180":-1.2704496383666992,"181":1.0104799270629883,"182":-4.448698043823242,"183":5.988431930541992,"184":-2.5852112770080566,"185":3.0254533290863037,"186":0.27180859446525574,"187":1.9920722246170044,"188":-2.8122570514678955,"189":-0.1878003180027008,"190":1.6695075035095215,"191":1.495511531829834,"192":-0.44474536180496216,"193":1.7679126262664795,"194":-0.021171703934669495,"195":-0.19166292250156403,"196":-2.0544936656951904,"197":1.1914433240890503,"198":-0.6035315990447998,"199":0.8395828604698181,"200":-0.4981386661529541,"201":-1.8011306524276733,"202":5.128813743591309,"203":5.365672588348389,"204":-2.984379529953003,"205":-0.6274281740188599,"206":-0.4167168438434601,"207":1.9934144020080566,"208":2.1452882289886475,"209":-3.8325984477996826,"210":-2.0061261653900146,"211":-2.6576735973358154,"212":0.6241453289985657,"213":4.145447731018066,"214":-6.788001537322998,"215":-0.2764698266983032,"216":-2.4677817821502686,"217":0.22070002555847168,"218":7.15162467956543,"219":-0.7178393006324768,"220":-1.8421931266784668,"221":0.9020053148269653,"222":1.328554391860962,"223":1.3556495904922485,"224":-5.085977554321289,"225":-0.28549784421920776,"226":-0.5551220178604126,"227":-3.4284024238586426,"228":-1.0024137496948242,"229":1.9109127521514893,"230":0.10113832354545593,"231":-7.97576904296875,"232":5.2364182472229,"233":-0.3200375735759735,"234":0.5163177251815796,"235":1.9241523742675781,"236":-0.5072755217552185,"237":1.8320714235305786,"238":4.106016635894775,"239":1.0648616552352905,"240":2.918726921081543,"241":-4.255012512207031,"242":-1.2514469623565674,"243":2.1771059036254883,"244":-0.7339833378791809,"245":2.2692220211029053,"246":-2.4453814029693604,"247":1.804206371307373,"248":-3.043828010559082,"249":-0.8780441880226135,"250":-0.7394188046455383,"251":1.072996735572815,"252":-0.04256384074687958,"253":-0.1299213021993637,"254":2.5926499366760254,"255":-0.7180697321891785,"256":-0.0978347659111023,"257":2.1106348037719727,"258":2.152186155319214,"259":-1.4618992805480957,"260":-0.7073437571525574,"261":-8.79992389678955,"262":0.19325478374958038,"263":5.839545249938965,"264":-1.505289077758789,"265":-1.3633959293365479,"266":-1.7206286191940308,"267":2.254770517349243,"268":-6.26995849609375,"269":0.18138360977172852,"270":0.6040880084037781,"271":3.512254238128662,"272":0.2235100269317627,"273":2.4443769454956055,"274":-1.1452676057815552,"275":-1.3945555686950684,"276":-0.7025979161262512,"277":-0.8617876172065735,"278":3.362032651901245,"279":-1.4173479080200195,"280":-1.6697824001312256,"281":-7.6806206703186035,"282":-2.0072922706604004,"283":-2.395336866378784,"284":1.6374995708465576,"285":1.3119171857833862,"286":-4.330279350280762,"287":2.031093120574951,"288":-6.822988033294678,"289":2.5171709060668945,"290":1.6531471014022827,"291":2.448624610900879,"292":-0.9975937604904175,"293":1.3658154010772705,"294":-0.2448851615190506,"295":-0.15430624783039093,"296":2.59867525100708,"297":-0.5403503179550171,"298":1.6611219644546509,"299":2.7975411415100098,"300":2.241659164428711,"301":-3.75642728805542,"302":-2.38608455657959,"303":5.974815368652344,"304":-2.5539259910583496,"305":3.1110079288482666,"306":0.04512009024620056,"307":-3.469669818878174,"308":-3.4968464374542236,"309":-5.012978553771973,"310":1.2608051300048828,"311":-3.5896284580230713,"312":-0.8150292038917542,"313":1.6506537199020386,"314":3.503464698791504,"315":3.8403937816619873,"316":-0.38809332251548767,"317":0.8120267391204834,"318":-0.0752141997218132,"319":-2.060316324234009,"320":-1.1327219009399414,"321":-3.8062024116516113,"322":-0.8490033745765686,"323":-1.3119105100631714,"324":-0.5584413409233093,"325":2.1168668270111084,"326":-8.698824882507324,"327":-0.42879846692085266,"328":-4.358506202697754,"329":-2.5301966667175293,"330":-0.5713056325912476,"331":-0.7155642509460449,"332":2.048593521118164,"333":-0.3636986017227173,"334":0.20212076604366302,"335":-5.249244689941406,"336":-3.5362799167633057,"337":3.8126332759857178,"338":0.2697818875312805,"339":-3.9633452892303467,"340":3.1983885765075684,"341":-7.0701904296875,"342":-2.5091159343719482,"343":5.081248760223389,"344":2.8904178142547607,"345":0.37898099422454834,"346":1.2001954317092896,"347":1.5817265510559082,"348":-5.8144941329956055,"349":-0.4250105023384094,"350":-0.5375246405601501,"351":2.0266058444976807,"352":1.983609914779663,"353":2.805680274963379,"354":0.09503410011529922,"355":3.9925713539123535,"356":0.8845685720443726,"357":1.6585217714309692,"358":0.6598091125488281,"359":2.638737678527832,"360":-0.3961098790168762,"361":3.1754095554351807,"362":4.512482166290283,"363":-2.0130715370178223,"364":1.7370002269744873,"365":-5.512714385986328,"366":3.9343202114105225,"367":-1.208267092704773,"368":7.79567289352417,"369":3.8894290924072266,"370":-1.2798181772232056,"371":-0.19605527818202972,"372":1.4777112007141113,"373":-1.9773528575897217,"374":-3.650655508041382,"375":1.2535349130630493,"376":2.1628963947296143,"377":1.498779058456421,"378":-0.35709765553474426,"379":2.1258466243743896,"380":-0.3398287892341614,"381":-0.3570609390735626,"382":-0.28295499086380005,"383":-0.42122939229011536,"384":-2.2369370460510254,"385":-0.0571480318903923,"386":-2.7436985969543457,"387":-2.3577651977539062,"388":3.5330305099487305,"389":-4.157121658325195,"390":0.28584349155426025,"391":-2.6130902767181396,"392":1.639086365699768,"393":-2.1642684936523438,"394":3.4329235553741455,"395":-5.649625301361084,"396":-3.099395513534546,"397":4.177938461303711,"398":-0.05344102159142494,"399":-0.04021143540740013}},"inputBias":{"rows":20,"columns":1,"weights":{"0":-1.3633389472961426,"1":5.006640911102295,"2":-1.9562511444091797,"3":-2.2010974884033203,"4":1.5750319957733154,"5":4.350749492645264,"6":-2.876330852508545,"7":-0.6343435049057007,"8":-1.8712742328643799,"9":-0.14511388540267944,"10":-2.6847429275512695,"11":-1.2355860471725464,"12":-1.670588731765747,"13":-2.7264795303344727,"14":-0.8188984990119934,"15":-3.506950855255127,"16":-0.8107184171676636,"17":-0.8198108673095703,"18":-0.8166300058364868,"19":4.899871826171875}},"forgetMatrix":{"rows":20,"columns":20,"weights":{"0":-0.8927121162414551,"1":-2.0032312870025635,"2":-1.0245031118392944,"3":-2.597736120223999,"4":-2.769347906112671,"5":2.373660087585449,"6":-1.7342885732650757,"7":-2.2642266750335693,"8":-0.9429495930671692,"9":2.807318925857544,"10":4.3348917961120605,"11":0.5228396058082581,"12":0.3378567397594452,"13":-4.08474063873291,"14":-0.45946595072746277,"15":-0.5345428586006165,"16":1.9774829149246216,"17":-2.0557594299316406,"18":1.1989938020706177,"19":1.902662754058838,"20":-0.6168305277824402,"21":1.2733336687088013,"22":3.3688552379608154,"23":4.32539176940918,"24":1.0734443664550781,"25":6.89186954498291,"26":-2.402331590652466,"27":0.9127490520477295,"28":0.7155874967575073,"29":2.856795072555542,"30":0.10441586375236511,"31":-1.4489235877990723,"32":1.853849172592163,"33":0.35295379161834717,"34":-2.5414183139801025,"35":0.29599729180336,"36":-5.27872371673584,"37":5.461971759796143,"38":-0.47687533497810364,"39":-1.983919382095337,"40":-1.1147202253341675,"41":-2.3295929431915283,"42":4.865654468536377,"43":2.579998016357422,"44":-1.5800747871398926,"45":2.5387141704559326,"46":2.8719582557678223,"47":2.022568941116333,"48":-2.1922192573547363,"49":2.974801778793335,"50":-1.2385770082473755,"51":3.5655300617218018,"52":1.100619912147522,"53":1.4124104976654053,"54":2.552421808242798,"55":-2.9507081508636475,"56":-1.219722032546997,"57":1.5509798526763916,"58":-1.854836106300354,"59":-1.94352126121521,"60":-1.6947373151779175,"61":0.6399284601211548,"62":-0.47003617882728577,"63":3.214772939682007,"64":-2.375493288040161,"65":-0.14905624091625214,"66":-2.258702516555786,"67":-2.0108823776245117,"68":-0.9848038554191589,"69":2.2152597904205322,"70":-0.052276790142059326,"71":1.3897043466567993,"72":0.4941564202308655,"73":1.7045390605926514,"74":-3.997255802154541,"75":-2.34635066986084,"76":1.3389555215835571,"77":-1.470941185951233,"78":-1.276755928993225,"79":-0.5119578242301941,"80":-3.4499409198760986,"81":0.738284707069397,"82":0.19849707186222076,"83":2.4223480224609375,"84":-2.963428497314453,"85":3.40629506111145,"86":2.8856136798858643,"87":1.112471580505371,"88":4.1353535652160645,"89":1.2496997117996216,"90":0.3104862868785858,"91":0.09425023943185806,"92":-0.41346147656440735,"93":-1.5565787553787231,"94":-1.6612385511398315,"95":-3.1880593299865723,"96":-1.698299765586853,"97":0.6628730297088623,"98":-3.454908609390259,"99":-0.4604133069515228,"100":0.7034518718719482,"101":-0.04628874361515045,"102":2.3518424034118652,"103":0.34843412041664124,"104":-0.9213797450065613,"105":4.649047374725342,"106":0.8109831213951111,"107":-2.892770767211914,"108":-2.146528720855713,"109":2.8782405853271484,"110":6.550706386566162,"111":-4.246401309967041,"112":1.9864546060562134,"113":-2.704134464263916,"114":-2.027801990509033,"115":-0.003188012633472681,"116":2.2479264736175537,"117":2.008632183074951,"118":-5.118931770324707,"119":-3.111940383911133,"120":1.3230984210968018,"121":-0.7221885919570923,"122":-1.8250007629394531,"123":-1.7499572038650513,"124":-2.07186222076416,"125":0.6265226602554321,"126":-1.2231627702713013,"127":-0.2679857909679413,"128":1.1196304559707642,"129":1.0610668659210205,"130":0.22521963715553284,"131":-1.2957528829574585,"132":-0.7751491069793701,"133":2.2682301998138428,"134":-0.5836845636367798,"135":0.9106467366218567,"136":0.4596003293991089,"137":-3.0200343132019043,"138":-0.48920682072639465,"139":0.11601252108812332,"140":4.778689861297607,"141":-1.81143057346344,"142":-1.9997608661651611,"143":-3.0656802654266357,"144":1.5403506755828857,"145":-1.4639919996261597,"146":-4.982860565185547,"147":0.16399508714675903,"148":-4.391867637634277,"149":0.744584321975708,"150":-1.247510313987732,"151":0.17018625140190125,"152":-3.9054229259490967,"153":1.1588331460952759,"154":4.780133247375488,"155":3.896047592163086,"156":5.510677337646484,"157":1.2963365316390991,"158":2.2754838466644287,"159":-1.185170292854309,"160":0.6475600004196167,"161":-0.1547149270772934,"162":1.4927520751953125,"163":2.3539299964904785,"164":0.7213314175605774,"165":-0.8337402939796448,"166":2.2742323875427246,"167":4.47908878326416,"168":-0.9984481930732727,"169":-3.946885824203491,"170":2.127021312713623,"171":-0.7316790223121643,"172":-1.4543370008468628,"173":1.3535785675048828,"174":-0.7406447529792786,"175":0.3785998523235321,"176":-1.3947391510009766,"177":2.2961223125457764,"178":1.204864501953125,"179":-1.4518616199493408,"180":2.5474658012390137,"181":-2.247736930847168,"182":-0.26500508189201355,"183":-0.5209463834762573,"184":1.0799185037612915,"185":0.12608559429645538,"186":0.921371340751648,"187":2.3012382984161377,"188":-0.5205132365226746,"189":-3.545592784881592,"190":-2.1291933059692383,"191":-0.5080532431602478,"192":-0.30675533413887024,"193":-1.016414999961853,"194":-0.14448243379592896,"195":1.535762071609497,"196":0.8130320906639099,"197":4.557736396789551,"198":1.602556586265564,"199":3.141227960586548,"200":2.731875419616699,"201":0.2907142639160156,"202":0.7127326726913452,"203":-0.19510743021965027,"204":1.9942259788513184,"205":-0.5204786658287048,"206":-5.210223197937012,"207":0.8156441450119019,"208":2.0408236980438232,"209":-0.20960450172424316,"210":3.8435239791870117,"211":0.2501852810382843,